-0.022074215	0.0030018599	0.013122568	-0.001800127	0.039634075	-0.0046368223	0.019879434	-0.026784	-0.04104851	0.010477139	0.034812346	-0.020994896	0.028800357	-0.0022196993	0.019210061	0.040592346	-0.06998374	0.028696533	0.045988616	-0.02823437	0.02165934	-0.009166636	-0.004763195	0.03878716	-0.02786381	-0.05932093	0.0146223465	-0.041785967	-0.022213442	-0.010112361	0.044992104	0.03412641
-3.857877e-05	-0.017178481	-0.02922398	-0.017493296	-0.027738372	-0.025681516	-0.015087602	-0.035753336	0.039450686	-0.0130708385	0.027891971	-0.010720716	0.0236518	0.007370102	0.04456182	0.022166427	0.0031648453	-0.03937475	0.01580012	0.017923791	-0.016419386	-0.018088171	-0.04524388	0.024293639	-0.015276482	-0.044151172	0.0086863935	9.9577825e-05	-0.023417043	0.02308365	0.003946461	0.014212333
0.032518853	0.06510921	-0.023584792	-0.025423683	-0.021779453	-0.006156798	0.03762376	0.027872125	0.035657056	-0.053422358	-0.030799521	-0.06404704	-0.020766826	-0.04278925	0.023367515	0.014862016	-0.057962123	0.040959183	-0.032341477	-0.056376062	-0.01459601	0.034231056	0.014292564	-0.05116074	-0.010134657	-0.09810674	0.017664077	0.039923448	-0.06665815	0.060175627	0.06381938	-0.044824418
0.03310779	-0.045276906	-0.012309561	-0.008274645	-0.028370129	0.038493212	0.045603428	-0.021155296	0.009763576	0.012551263	-0.014402355	0.060279693	-0.03074285	0.015413299	0.03273756	-0.037670936	-0.019158535	0.0069525433	0.009161816	-0.03621491	-0.045984454	-0.021285161	0.04189138	0.02472075	0.05097751	0.040532894	-0.030192489	0.0038589647	0.0032189647	-0.03608893	-0.031288046	0.029110225
0.02509306	0.014464328	-0.023507075	-0.047320448	-0.030261735	0.006671364	-0.03324668	0.030611217	0.03260282	-0.03519902	-0.03311243	0.047829855	0.015988508	0.039860595	-0.02012161	-0.028242303	0.038627293	0.007546396	0.041138064	-0.010086521	-0.029587315	0.012104848	-0.0023734965	-0.034864284	-0.042458408	0.042175613	-0.021145847	0.001923761	-0.025472246	0.037830926	-0.04821395	0.015813107
0.055407576	-0.009099498	0.03921925	0.024281638	-0.0036983772	0.031538997	0.04017127	0.018853297	0.015204175	0.014869765	0.020217674	-0.0065883347	-0.006591151	-0.01628543	0.0037981016	0.06706548	-0.0249361	0.03308873	-0.035407647	0.013880171	0.0051934873	-0.041398056	-0.02342796	-0.039022487	0.014004327	-0.020570213	0.04040518	0.010167044	-0.007288644	0.046049908	-0.0035017682	-0.020566445
0.066820934	0.005390715	-0.040999256	0.038161255	-0.068770595	0.06624405	0.01364263	0.06208873	-0.021868229	-0.06544312	0.019349677	-0.059807368	-0.05396996	-0.008850929	0.014484045	0.025688462	0.022844339	0.0117799435	-0.014998681	-0.03473252	-0.04985519	0.05888868	-0.009334226	-0.019106265	0.0056740884	-0.043095633	0.010940036	0.0043045636	-0.06124266	-0.0019433488	0.007118209	0.017187864
-0.00793048	-0.021501629	0.0669703	-0.01414358	0.008610442	0.011020479	-0.043364663	-0.027052559	-0.025957588	0.0046609826	0.046674028	-0.014962955	0.028087012	-0.035460413	-0.013106344	0.03295844	0.02386237	-0.04702938	0.033788458	0.057419837	0.057882566	-0.007245804	0.038039103	-0.022873687	-0.00290954	0.039638106	-0.027632976	0.027656658	-0.033267803	-0.003273033	0.033714425	0.0052018724
-0.0030743151	0.021873698	0.0397505	-0.03745836	0.045225345	-0.025323935	0.013228109	0.037279874	-0.055335402	0.05674132	0.016093558	-0.004424284	0.008829135	0.03495928	-0.011392229	0.0039160307	0.044462793	-0.053589903	-0.014366273	0.047491547	-0.024967631	0.0346263	0.040366706	-0.034632526	0.048048995	-0.0002763133	0.026818883	0.026431566	0.037763804	-0.004882942	-0.042750265	-0.0011294228
-0.033441152	0.023805141	0.0039624018	0.019007428	0.0528127	-0.044875983	-0.06574503	-0.04282314	-0.03296633	0.055081252	-0.009055276	-0.0036483516	0.010734338	0.039496798	0.010448304	-0.05145768	-0.004998342	0.019732624	-0.003908475	-0.011673553	0.07178406	0.011803152	-0.04257532	0.03580654	0.06601893	-0.013050084	-0.05047395	0.022131326	-0.0009213276	-0.0011705861	-0.055050995	0.014004063
-0.0025124352	0.016672162	-0.009970649	0.05580678	0.028353654	-0.027798858	-0.04954213	-0.056535162	-0.0111421235	-0.031620212	-0.034189127	-0.051766444	0.044168882	-0.024032772	0.038150497	0.011769191	-0.0658785	-0.025615627	0.040065754	0.045917265	-0.024945354	-0.016487854	-0.017739337	-0.0034490973	0.0034185783	-0.011567689	0.044354107	-0.03927598	0.05768996	0.026835939	-0.054080546	-0.022949614
0.00025544374	0.07579006	-0.055020247	-0.026795011	0.0019077366	0.068085715	0.022424322	0.04198556	0.07270968	0.01227714	0.006448587	0.009644119	-0.025952747	0.03456475	-0.012907558	0.017280094	0.02890784	0.038826477	-0.03797837	-0.005575157	-0.04605027	0.04240533	0.06428134	-0.059904896	0.02657553	-0.0044728033	-0.006787279	0.054997582	0.010466093	0.0075883213	0.056327887	0.04121263
0.00064059015	-0.022509048	0.007884891	-0.017506912	0.017549261	0.038648147	-0.005923393	0.052081447	0.05856739	0.0046672076	0.024982825	-0.030923873	0.032427788	-0.027003065	0.0075800843	-0.0138349505	-0.04638049	0.023676457	0.0011158736	0.019313697	-0.03218351	0.055657007	-0.01126285	0.009536053	0.02747436	0.02115253	-0.03598157	0.053771984	-0.053407937	-0.0019571	0.017542137	0.044415843
-0.13961351	-0.1214501	0.14070661	-0.10160145	0.11929976	-0.12793858	-0.1252548	-0.066067636	-0.044747837	0.08330586	-0.058763307	0.03283712	0.08619011	0.045596223	-0.09011905	-0.04371738	-0.04535653	-0.10702658	0.099640936	0.14225155	0.16472182	-0.13875596	-0.017875452	0.08490711	0.0993286	-0.038236547	-0.06435751	-0.12967488	0.09106593	-0.05514047	-0.1376999	-0.06625426
0.047597907	-0.017206613	-0.055792116	0.02214041	-0.03811954	0.03860939	0.021075783	0.020505404	0.026360082	-0.021369616	0.011852834	0.0142377345	-0.01634388	0.01973309	0.054160986	-0.033126034	-0.002885407	0.016072191	-0.021627666	-0.040469546	-0.048865017	-0.029066972	0.032106943	-0.06653921	0.02269242	0.0043037497	-0.024689855	0.019828165	0.01621277	0.03632985	-0.03641743	-0.016386261
0.02025344	-0.02388533	0.01207698	0.039865904	-0.0047509256	0.018330852	0.036973752	-0.003817349	0.04900678	0.023731856	0.0408846	-0.025632452	0.026705602	-0.02932988	2.5888814e-05	-0.01899957	-0.023381794	-0.009958921	0.03060236	-0.023737641	0.018936953	-0.021298405	0.042503774	0.009124201	-0.041618414	0.029084606	0.006340124	-0.011202639	0.0055113444	-0.015434128	-0.035858642	-0.011817826
0.06648758	0.023867253	-0.044969626	0.015419455	-0.058099627	0.016890014	-0.0037269546	0.03325134	0.017608572	-0.045496166	0.02016695	-0.047058564	0.030430097	-0.034971043	0.007277236	-0.015263138	-0.07794149	0.012970797	-0.0019615276	0.0006415789	-0.037451304	0.018776353	-0.02940146	0.0022963902	-0.0070327367	-0.09453724	-0.04033218	0.003209256	0.015475606	-0.010191194	0.052031077	-0.014819083
-0.01704017	0.00039958273	0.047818918	8.5240164e-05	0.0032151516	-0.02223576	0.0050007016	0.06299137	0.0038163757	-0.029771898	0.006788023	-0.031545512	-0.0106765395	0.00071795355	0.038220823	0.0059775827	-0.03704339	-0.03485774	0.012939406	0.021458227	-0.03432787	-0.016841806	-0.043423258	-0.046194255	-0.010663	0.015883466	-0.0014399857	0.0047506033	-0.03175296	-0.026500866	0.026546607	-0.03590341
0.06583884	0.08971467	-0.061814617	0.02613515	-0.12668513	0.07578144	0.094957985	0.084340416	0.11767093	-0.12613434	0.0606388	-0.10379801	-0.12233646	-0.055657994	0.07866928	0.06465273	0.059377205	0.13576986	-0.07993423	-0.12095781	-0.046987817	0.11939757	0.076725	-0.11411821	-0.06751583	0.03223917	0.062348418	0.09895969	-0.13712479	0.119296096	0.056576256	0.10055834
0.05973816	0.044620242	-0.08906097	0.0036400035	-0.077790834	0.02811311	0.042141356	0.09048735	0.11423891	-0.08928332	0.084828824	-0.050888296	-0.07240253	-0.050767183	0.034257524	0.06190228	0.025341002	0.06286039	-0.062058024	-0.078238465	-0.06279727	0.047467317	0.058268312	-0.07220675	-0.0464565	-0.022468407	0.0124693075	0.047121853	-0.046033084	0.08022721	0.114813246	0.04845637
-0.018249149	0.008498869	-0.021506581	-0.053905252	-0.0004763658	0.015997022	-0.02084841	0.023259567	-0.045563437	-0.014605226	0.028669382	-0.008350866	-0.021478007	-0.012949581	-0.042621993	0.000486874	0.03614045	-0.02785234	-0.017675785	0.05346763	-0.031868126	0.016908934	-0.042130463	0.03502479	0.049111333	-0.05324226	-0.013818364	0.0011201379	-0.020523507	0.014765634	-0.005799785	8.379438e-05
-0.030596413	0.029170373	-0.026747113	0.025738945	-0.011144398	-0.04573302	-0.02242452	-0.042673986	0.03712509	0.029543757	-0.020343337	-0.023662208	-0.0055995677	0.058727656	-0.013419858	-0.018266238	0.043930776	-0.014919737	-0.029073274	0.04300778	0.05533746	-0.017389346	0.05470494	0.019531	-0.018077916	0.050262995	-0.052384887	-0.054276716	-0.04329185	0.029832736	-0.03479082	0.029402494
0.013729406	0.020937541	0.018832903	-0.005589068	0.014141768	-0.0030884107	0.008405237	0.0050112973	0.013440671	-0.040390838	-0.014860689	-0.03901422	-0.0005728556	0.055098385	-0.021650683	0.021003777	0.0032459185	-0.04392998	0.040445615	-0.0209135	-0.027825	0.03755609	0.022804413	-0.024182556	0.00795022	0.02233971	-0.0016682908	-0.038049478	-0.009663726	0.029827096	-0.024228258	-0.062052656
0.0113142235	0.0012972576	-0.052459083	0.014776951	0.0019321269	0.08589098	-0.026710339	0.054222915	0.06874284	0.0086205825	0.073231906	-0.04777383	-0.076604165	-0.0094917985	0.10036644	0.0928879	-0.00321531	0.054935884	-0.02565959	-0.011715816	0.014252252	0.0065370253	0.051743977	-0.07122805	-0.08737499	0.011379874	-0.0053301933	0.06557082	-0.0039861626	0.08662465	-0.009218033	0.034651473
0.028772743	0.05561537	0.025117407	0.019197928	0.025526026	0.005419908	-0.014014534	0.024722481	0.04140917	0.0128311105	0.00451847	0.006766268	-0.036189787	0.019112557	0.06498986	0.050526526	-4.8295815e-06	-0.03876213	-0.010121037	0.009298853	-0.038374692	0.01743371	0.0044081607	0.018345205	0.014334514	-0.0446921	0.022633843	0.01949514	-0.023961145	-0.009450852	-0.033062987	0.044070486
0.014012387	-0.022456681	-0.033534177	-0.0050375	-0.025064642	-0.0510742	0.03131666	0.011841023	0.013492612	-0.05674471	-0.04547395	0.04050793	-0.042754218	-0.044055812	0.027804509	0.0012409285	-0.03752798	0.05897727	-0.027959784	0.013476517	-0.059172872	-0.03240658	-0.023514053	0.0031867167	-0.0006926765	0.021710698	-0.03025642	0.033519335	-0.010972438	0.009823562	-0.013737474	0.018837912
-0.024925552	0.048754457	-0.0139194885	0.02466145	0.024630988	-0.04738774	0.023942849	0.04848827	0.049894962	-0.019573925	-0.01805876	0.041544978	0.008095104	-0.05375801	-0.045170695	-0.0081999535	0.07800664	0.03177901	0.02959474	0.019179406	0.0036375385	0.045775976	0.00287744	0.00788527	0.017896194	-0.011958439	0.02791046	-0.0044849166	-0.0497814	0.0012449084	0.046506044	0.053201396
0.0041099014	-0.008781036	0.027882162	-0.026383663	0.0008251407	0.036619134	0.038516942	0.025102649	0.035108063	-0.0008462474	0.019206675	0.047626324	-0.009638871	-0.036411744	0.026547523	0.036206048	-0.047154967	0.028942589	-0.032522384	0.0058504385	-0.027175969	0.04438597	0.013825982	-0.038851473	0.036495138	-0.017949471	0.009502794	-0.05279871	-0.03783489	-0.03487277	-0.012227506	0.03723021
0.021738334	0.034420565	0.037387952	-0.0033646317	0.0019710867	0.034015123	-0.009218729	0.06451496	-0.024103781	-0.025689628	0.027935931	-0.005248657	0.022024583	-0.045871116	0.0014664794	0.04126838	0.022047821	-0.032743335	0.0043290644	0.014637578	-0.040600687	0.02925426	-0.0068370826	0.040728413	-0.0053576543	0.0051777414	-0.052650783	-0.019494843	0.0011504071	-0.035961095	0.037313376	0.035680644
-0.08408924	-0.023771299	0.052012824	0.01221557	0.08669652	-0.024583708	-0.029800743	-0.058603477	-0.018059125	0.021671217	-0.032502133	-0.007086753	0.03069286	0.050006967	0.009405148	-0.06634901	-0.07372676	-0.051709577	0.0400419	0.08848491	0.06609632	-0.017095907	-0.013012401	0.03703509	0.0021557263	-0.030841103	-0.016417274	-0.07783754	0.0009317863	-0.07721905	-0.041100614	-0.075604245
0.027578935	-0.021121437	0.036927257	0.043791234	-0.018877594	-0.043420788	-0.030044992	0.01335768	0.03306395	0.00809916	0.0007795227	0.062224433	-0.018721906	-0.012575776	0.018997345	0.005480412	0.025837295	-0.04188555	0.034114324	0.055498168	0.021823298	-0.023206279	-0.0030799625	-0.04760306	-0.022054128	-0.015518392	-0.022558745	-0.036721308	-0.041471597	-0.011137638	0.042154342	0.03177936
-0.067696795	-0.06137522	0.023887886	-0.007337737	-0.005158426	0.02422997	-0.06086148	-0.01634493	-0.011297136	-0.0060642436	0.009637181	0.027214367	0.057831407	-0.015475962	0.0061193793	-0.041798014	-0.03514081	0.020320095	0.06770558	0.029038994	0.020736115	-0.04335052	-0.04569052	0.018159352	-0.052808993	-0.0018153352	0.00976846	-0.047970615	0.026255904	-0.027342107	0.010578827	0.005596978
0.013875945	-0.04572774	-0.03001039	-0.028244372	0.058260933	-0.031208409	0.027348662	0.045646053	0.0033271853	-0.004790952	-0.03630793	-0.012858675	-0.031897712	-0.016550088	0.0070917853	0.017291127	0.09403743	-0.027181797	0.0181202	-0.01589504	-0.009478172	0.034063615	-0.016531575	0.017444247	0.02936507	0.08428261	0.016182406	-0.00096147065	-0.020192876	0.009503144	-0.021963129	0.0123819355
-0.024079252	-0.01940745	0.014990044	0.055683408	-0.05088836	-0.0021692296	0.04726517	-0.0034340231	-0.0023109182	-0.032225437	0.03666454	-0.05355992	-0.014766122	-0.04438644	-0.012108637	-0.00741059	-0.026438162	0.064408995	0.010595941	-0.012224054	-0.04998569	-0.0067526326	-0.019834923	-0.0061913626	-0.050130732	0.0320988	0.005326484	0.0026712378	0.0021227414	0.066126965	0.0020373364	-0.018837307
-0.014550698	-0.04182189	-0.014529427	0.001134016	0.021498838	-0.03361085	-0.013776866	-0.032623056	-0.044353727	0.031232579	-0.052856404	-0.0026488397	0.018075678	-0.06161958	0.03963798	0.0094859535	-0.07362896	-0.027058464	-0.044992696	-0.00040515268	0.05041024	-0.016000519	0.02973593	-0.03203748	-0.028006637	0.025998943	0.006267665	-0.036393557	-0.03843128	-0.036934577	0.0006844889	0.006344784
0.025034165	0.0064708614	0.00985848	-0.021750284	0.051167697	-0.014438909	-0.010362612	0.022078907	0.017382648	-0.026628762	-0.016513875	-0.022313599	0.04686445	-0.012455385	0.020206546	-0.022657823	0.007535246	0.015151474	-0.024850689	-0.010771388	-0.027748989	-0.021304289	-0.0033188914	0.050141353	0.052707754	0.023657035	-0.0516148	-0.025701314	0.0030089428	-0.013818489	0.009890412	-0.041089807
-0.005055403	-0.022036243	0.029197574	0.03346513	0.050303124	0.0008654573	0.05329271	-0.010893048	-0.018169545	0.002271088	0.015253315	-0.018855093	0.0009118222	-0.0020187753	0.02624558	-0.002306442	0.0913177	-0.03669714	0.039471194	0.02431273	-0.06699486	-0.011177945	0.055775575	-0.00863852	0.011753196	0.041075233	0.031477924	-0.040444195	-0.026234722	-0.030517269	0.029259017	0.0028283584
-0.008371611	-0.015730431	0.037988927	0.016988557	0.08172502	-0.072599806	0.009762401	-0.017463509	-0.043900263	0.083133325	-0.07235919	0.004637171	0.07965363	-0.005932648	-0.058558553	-0.020203952	0.02062349	-0.04181819	0.07998472	-0.012155456	0.058806214	-0.020550324	-0.010382213	0.078555755	0.07721272	-0.05647771	0.005631535	-0.088296995	0.0061308052	-0.05347701	-0.042079177	-0.03455176
0.031668287	-0.004543136	-0.01977323	-0.023729678	-0.06511983	-0.04819537	-0.0015390589	-0.034034777	-0.0150716165	-0.025831794	0.057694487	-0.0503468	-0.019369293	-0.064239375	0.06889821	0.036469486	-0.054925323	-0.017579608	-0.04016199	-0.042500976	-0.0074592247	-0.053372927	-0.045901608	-0.031959027	-0.019893741	-0.097731724	0.051399175	-0.030953877	0.021663943	-0.002445018	0.045116954	-0.017781068
-0.031389397	-0.031035004	0.06958192	-0.013432642	0.009999837	-0.077340506	-0.05622694	-0.046002977	-0.07720193	-0.0004967405	-0.057684585	0.056706104	0.020678924	0.04098368	-0.032060854	-0.03763569	-0.015318558	-0.010228409	0.040717226	0.021800095	0.097020395	-0.04660934	0.008467202	0.055001754	0.044550966	-0.0028035855	-0.07878513	-0.0710955	0.006489533	-0.08300196	-0.021385804	-0.003633927
-0.0039833947	0.006098616	-0.07255376	0.042603467	-0.01344308	0.070625596	0.06346026	0.052369844	0.056741808	-0.05081769	0.045996826	-0.028956477	-0.046767786	-0.06298707	0.016406823	0.0032383718	-0.054311913	0.008502692	0.0012923975	-0.08133794	-0.046603374	0.016448693	-0.006748181	-0.014092911	0.02088871	0.023732338	-0.029999472	0.0019957684	-0.078660585	-0.028859572	0.022553397	0.025385994
-0.06642011	-0.015745863	0.06395761	-0.06521616	0.033668187	-0.0069752764	0.011276128	-0.032585237	0.013927404	0.051981278	0.015699284	-0.011112583	-0.017381458	0.055153694	-0.078022674	-0.01021677	-0.037481993	-0.017166585	0.04742384	0.065223485	0.04187194	-0.033484813	0.020018259	0.0052797482	0.035152692	0.021551507	0.027935207	-0.038519286	0.012049671	-0.023594826	-0.0097784	-0.02308036
-0.06127639	0.050647758	-0.043204427	0.023022138	-0.017378507	-0.04765148	0.040673494	0.037015777	-0.022272788	-5.6708257e-05	-0.0042782477	-0.006912217	-0.026131725	-0.059563775	-0.021193286	0.018943503	0.014491874	0.0399643	-0.017199302	0.020228248	-0.0090521835	-0.025698	0.050571337	-0.00828013	-0.026541578	0.027305415	-0.02385081	0.05135685	0.011374641	0.027115095	-0.032070678	0.014490646
-0.026611825	-0.043416828	0.044435132	0.007102491	0.0045703496	-0.03941942	0.034059543	-0.031025281	0.02594829	-0.042401817	-0.02379863	0.06399655	0.03184644	-0.023488393	0.0009623618	-0.03806752	-0.041025896	0.016109493	-0.040929403	0.051322583	0.04277093	-0.054143045	0.021469839	0.031546798	0.06851316	0.01877964	-0.022259872	-0.0038274797	0.051054303	-0.017467145	0.03490927	-0.006607526
-0.0021350083	-0.05135046	0.0004966734	-0.02995543	-0.0334168	0.044413034	-0.024559373	0.043388534	-0.028919991	0.017149137	0.028066859	-0.006619049	0.027406484	-0.032637622	0.032476243	-0.018200586	-0.010551562	0.040053952	0.024389166	0.05099387	-0.010259763	-0.017306285	0.05186505	-0.041000538	0.048401568	-0.041733712	0.008095454	0.048274852	-0.04314684	-0.035476312	-0.03559934	0.030317778
-0.07295763	-0.042199746	0.082185924	-0.09680496	0.029681955	-0.02388344	-0.057404526	-0.0892121	-0.006038551	0.051734786	0.0058573484	0.059053585	0.026654579	0.022257721	-0.06305269	-0.05705889	-0.061586082	-0.0942757	0.005660181	0.043195494	0.08408267	-0.07553478	-0.004498146	-0.014055917	0.015992977	0.0006316832	-0.06354069	-0.015739167	0.025282279	0.00419705	-0.10548085	-0.022457024
0.009862512	0.014063466	0.0086921165	0.023367394	-0.014834441	-0.03664967	-0.013191845	-0.024996128	0.016023511	-0.051777624	-0.03727332	0.011632885	-0.04486426	0.049315866	-0.06775667	0.007722296	0.062467244	-0.04367845	0.019118652	0.0058788205	-0.05094457	0.007212777	-0.025051119	0.021846386	0.0022661085	0.0419037	-0.053940415	0.052131493	0.04209575	0.008905434	0.023605002	0.041355215
0.09976096	0.07118321	-0.024191897	0.09672466	-0.060989916	0.044607382	0.09158017	0.12305415	0.106957324	-0.0779928	0.02356243	-0.060506694	-0.051344838	-0.01787533	0.027006397	0.027923107	0.03662927	0.09727471	-0.07613987	-0.06625361	-0.059207633	0.0999737	0.033952095	-0.045951743	-0.019828564	-0.00044944696	0.014620089	0.08058725	-0.09614703	0.033790354	0.08018795	0.1230625
-0.06463491	-0.0076422463	0.04649923	-0.017080052	0.030284462	-0.029450702	-0.007258384	0.015621966	0.019401897	0.010196329	-0.06692805	0.051214766	0.05467823	0.06937973	-0.01005386	0.016416533	-0.025204552	-0.03842578	0.032860283	-0.025181301	-0.034347367	-0.046390407	-0.05578738	0.044347707	0.047656782	-0.024748921	-0.011779305	-0.015873926	0.051521473	-0.00014882679	-0.040877014	-0.036834404
-0.032375734	-0.09255336	0.06827368	-0.06274925	0.033739157	-0.058710165	-0.086779706	-0.103051335	-0.049969856	0.064003184	-0.0046301293	0.049041968	0.09983017	0.09591147	-0.039793383	-0.044015713	-0.02355519	-0.06581395	0.013739948	0.052362107	0.06725195	-0.036034867	-0.009790698	0.059819296	0.081714965	-0.02353567	-0.069260076	-0.09822819	0.05277667	-0.055214804	-0.07674924	-0.025991162
0.025734948	0.011261734	0.044580683	0.015789254	0.029109662	-0.02177469	-0.058666576	-0.062711835	-0.05047662	0.03206529	-0.038610056	0.03914733	0.02553595	-0.008363476	0.015303347	-0.008902579	-0.11432288	-0.01723238	-0.0008070665	-0.021941207	0.040840387	0.0066188304	-0.05248854	-0.0160188	0.036881577	-0.014606202	-0.009601258	-0.0057519358	0.026193453	-0.026556699	-0.024845691	-0.04552085
-0.016823376	-0.004840209	-0.037275225	-0.0075961496	0.025086049	-0.0056930645	0.038339835	0.042950764	0.002736054	-0.022126442	-0.021932213	-0.026403114	0.051269107	0.024920398	0.044319175	-0.0062840143	-0.07453698	-0.06086385	0.02899751	-0.0014590775	-0.005509291	-0.030344298	-0.032927994	-0.0035450733	-0.021029508	-0.090361856	-0.00794349	-0.035174273	0.044542205	-0.042044833	0.03817131	-0.03723043
0.046994213	0.056318436	-0.051460683	0.0060056266	-0.0726469	-0.00053250353	0.035483774	0.01647751	0.037048098	-0.021511417	-0.05969904	0.035663765	-0.005340479	-0.050722443	0.05559455	0.023706233	-0.00062448456	0.0204392	0.007902388	-0.06751068	-0.04186051	0.018486733	0.033808928	-0.04869811	0.009327311	-0.053525947	-0.042184073	0.03230441	0.028245118	0.033068445	0.064553015	0.046000406
0.011770458	0.052493796	-0.03324433	0.0050858557	0.038811646	0.018291013	0.025319649	-0.00527099	-0.013284625	-0.024021596	0.0018931774	-0.041897498	0.043774966	-0.0068656043	-0.0020025806	-0.026157763	0.054161675	0.020822302	-0.029151347	0.0067953723	0.019194731	-0.028858595	0.0026965814	0.03674748	-0.025330327	0.04848703	0.055089157	0.06445822	0.03258156	0.04976656	-0.03272009	0.06298717
0.07367919	0.05096903	-0.08065088	0.06988089	-0.033187475	0.07759213	0.024638295	0.051557217	0.042633694	-0.11235228	0.029154886	-0.0073422994	-0.022146739	-0.081299774	-0.004298783	0.011404456	0.009479316	0.0504581	-0.08894496	-0.11601249	-0.03105678	0.034914058	0.033561647	-0.058726966	-0.0026764767	-0.017283691	0.008469603	0.06846403	-0.052965526	0.09121181	0.030804172	0.09180867
-0.012308282	0.021587295	-0.028115597	0.028237468	0.0037244586	-0.015217138	0.028021049	0.013474467	-0.013336235	-0.05532257	0.048891976	-0.03808061	-0.051016375	0.01067179	0.05159166	-0.0059402515	0.040603317	0.054237522	0.022405457	-0.019923141	0.0014829466	0.05407618	-0.02353213	0.016421106	0.023409432	-0.007992991	0.0044380315	-0.012581253	-0.05605363	0.033724777	0.0608731	-0.003397136
-0.0008237453	0.024282837	-0.002982305	-0.035717573	0.007445462	-0.05209273	-0.012397448	0.0133945765	8.604664e-06	-0.011523063	-0.019084362	-0.03247581	0.060076248	0.020216083	0.026014807	0.03286016	-0.004558875	0.03891321	0.0021241829	-0.030318003	0.018576529	-0.038613122	0.016689556	-0.014465078	0.044478137	-0.009899966	-0.015119494	-0.066951044	-0.032659773	-0.048433222	0.024767129	-0.03749605
0.032779112	0.029124765	-0.05414342	0.07882082	-0.04662584	0.014081828	0.03258626	0.045555048	0.005707455	-0.104085796	0.07572513	-0.0055207685	-0.07472615	-0.010059042	0.030662855	0.03258109	0.04025894	0.0094184205	-0.099100836	-0.050891608	-0.034154717	0.043898728	0.0164963	-0.014193377	0.018074177	-0.010146917	0.06235608	0.06470366	-0.06160912	0.052038375	0.102828905	0.067213744
0.045643445	0.03898919	-0.011315285	-0.0020878979	0.010288495	0.051440492	0.04846043	0.016020069	0.04727158	-0.039111912	0.026716817	-0.039344925	-0.07704803	-0.05436195	0.025048044	-0.012258863	0.061087128	0.06723441	-0.048337534	-0.013950946	-0.046011575	0.021077158	-0.027165024	-0.070819095	-0.04743729	0.03392524	-0.046036948	0.0053032893	-0.0070876507	-0.0016211052	0.062966324	0.0035251072
-0.019022154	-0.03911933	0.026160244	-0.030389206	0.04430561	-0.052769937	-0.023409992	-0.0006860383	-0.034725554	-0.029442646	-0.077875584	0.02976462	0.04836052	0.05470142	0.0069093322	-0.052887928	-0.03214129	-0.05997844	0.013321014	0.019661782	0.05561326	-0.017858818	-0.023391169	0.016706089	0.02066156	-0.0024526922	-0.027370187	-0.061676063	-0.0023871178	-0.008351085	-0.044290137	-0.06893204
0.013724914	0.0117459055	0.03662925	-0.08208744	-0.021773355	-0.071848474	-0.02458266	-0.06432677	-0.03975976	0.035754185	-0.034324348	-0.036283836	0.054356802	0.061713036	-0.039674733	-0.054842945	-0.08125957	-0.034597076	0.07668557	0.034748502	0.034051377	-0.08334051	-0.03690991	0.050083373	0.007431042	-0.083292335	-0.02802187	-0.040389847	0.029353399	-0.06639654	-0.050835945	-0.056291476
0.039437067	-0.061656315	-0.027151514	0.01436412	0.043721415	-0.012899558	-0.028045705	0.048365813	0.008267774	0.020793669	-0.0560064	0.069659956	-0.026839046	0.039243296	-0.04799706	0.033540037	0.11682142	0.046919584	-0.015651478	0.023765378	-0.00045810346	0.016618531	0.049285967	0.013143239	-0.048920877	0.031396717	-0.055150077	-0.011976436	-0.032068543	0.017130477	0.03617801	-0.0009739006
0.011349321	0.014675817	-0.01761176	0.033961996	0.056493588	0.017567836	0.034178417	0.007888662	-0.0016766939	-0.0022907313	-0.055245243	0.029012868	-0.016283365	-0.028633846	0.022509348	0.033799406	0.058672354	0.0024384232	-0.0058876104	0.010901822	-0.025771841	0.0068651736	0.009982841	-0.03681416	0.00595024	0.051707163	-0.024851222	0.03588448	0.04805016	-0.027409557	0.03360409	-0.011208558
-0.08985163	-0.091946945	0.038297992	-0.035673942	0.07349923	-0.016653933	-0.05679392	-0.017213445	-0.08697094	0.014014373	-0.095604494	0.040208634	0.0962718	0.09016796	-0.030849222	-0.05662679	-0.0013365712	-0.07378167	0.024392163	0.046109844	0.04566799	-0.009399781	-0.025431477	0.050756488	0.1121339	0.009520577	-0.040519007	-0.027363805	0.053061638	-0.017906118	-0.08515159	-0.06309262
-0.00773004	-0.047710534	-0.012785707	0.026316142	0.06023864	-0.07113438	-0.038147602	-0.012512561	-0.054883532	0.020946432	-0.02238935	0.059166316	0.023838693	0.017288199	-0.0719259	-0.00056883506	-0.0011180681	-0.069060296	0.015195033	0.012788272	0.021001544	-0.035561536	-0.03221498	0.027051905	0.037916403	0.015332073	0.023257205	-0.0026506823	0.082286716	-0.07936617	-0.024738252	-0.054756723
-0.021474775	-0.014564705	0.005085993	-0.050795108	-0.0010631689	-0.024939328	0.0036904097	-0.016807934	-0.04896511	0.010499618	-0.040518664	-0.012932197	-0.017131135	0.039553177	-0.0061048875	0.006931997	-0.041007575	0.026166864	0.05096573	-0.009072126	-0.01553367	0.016155971	-0.043393437	-0.022565125	-0.052849326	0.018976016	-0.067547455	0.01848312	-0.022911543	0.003941986	0.007605866	-0.0036400123
-0.081561804	-0.05930626	0.05936658	-0.10072964	0.05400226	-0.04015493	-0.097780764	-0.019449431	-0.067841925	0.01643159	-0.06712536	0.08569707	0.04385926	0.09576374	-0.06155479	-0.030783517	0.035717983	-0.006949035	0.017175905	0.104877725	0.038113527	-0.01411193	-0.08723178	0.029695993	0.04007744	-0.040577255	-0.06885505	-0.074546106	0.0371617	-0.018010488	-0.044796813	-0.061827537
-0.09699405	-0.056112505	0.050194465	-0.05788542	0.034845058	-0.07334728	-0.032791022	-0.081355415	-0.09298954	0.10269083	-0.07629856	0.04866175	0.04814715	0.013269552	-0.06206822	-0.06666557	-0.045626566	-0.039948724	0.08155947	0.07654654	0.120376356	-0.06323961	-0.084953494	0.10009968	0.07618085	0.031377334	-0.0815846	-0.1095481	0.07706345	-0.06948711	-0.11240946	-0.119876884
-0.09257244	-0.08079999	0.041457847	-0.038012445	0.08180739	-0.024575347	-0.06604368	-0.07502916	-0.069113106	0.094273195	-0.04835919	0.09786484	0.10859131	0.03659662	-0.038764045	-0.10519363	0.038924664	-0.11230009	0.091366164	0.11071476	0.04030495	-0.09434316	-0.026561357	0.09668597	0.0676675	-0.032992642	-0.0018717935	-0.11331212	0.09098233	-0.018074652	-0.048821867	-0.027768737
0.06544706	0.053423382	-0.06028083	0.028937597	0.029306998	0.0720987	0.085025065	0.02054243	-0.0033752432	-0.080964066	0.06268971	0.026758084	-0.03430151	-0.05537521	0.047977097	-0.022240996	-0.015442786	0.015870294	-0.017623607	-0.009129848	-0.024940278	0.024630575	0.012510915	0.018619923	-0.029372329	0.03682219	-0.00783792	0.012046793	-0.027873302	0.06042012	0.06898434	0.049012754
0.016201358	0.006613813	0.05583398	-0.019741215	-0.013220609	-0.0021178648	0.012970629	0.023077035	0.030914104	0.04670675	-0.028396755	-0.035752874	0.024599623	0.050420012	0.017371839	0.009498104	-0.059776127	0.0087743895	-0.00082646235	-0.020889191	0.048698556	-0.058560316	-0.03347258	-0.013727846	0.06032046	-0.051403284	-0.029881356	-0.072297424	0.05919815	-0.00022374501	-0.033057384	-0.04481222
-0.022988765	0.015972823	0.016016126	-0.00073317415	0.0020280578	-0.008518666	0.012414335	-0.0050128736	0.033369005	-0.051341005	0.035407245	-0.02029404	-0.010407394	0.002353332	0.025488587	0.053221013	0.07180889	0.024691492	-0.03834029	-0.03766996	-0.0102531975	0.024671333	0.01890266	0.010822329	-0.04733974	-0.018128742	0.05812273	0.070577584	0.027555032	0.04161188	0.008864661	0.058994573
0.06709888	0.1636961	-0.10008862	0.11742547	-0.11866814	0.08145701	0.116010405	0.09376935	0.113589294	-0.12393997	0.11940403	-0.078410536	-0.06984513	-0.0872805	0.066455334	0.116288565	0.032653563	0.08228147	-0.09210981	-0.13196202	-0.0848205	0.14080793	0.033594407	-0.12583636	-0.1113438	-0.047150742	0.058978513	0.102103114	-0.13186565	0.12517525	0.130315	0.08985359
-0.06008791	-0.0127914045	0.049658623	-0.012437337	0.030769555	-0.02129035	-0.00537025	-0.015376549	-0.07643871	0.010935711	-0.018165264	-0.008993598	0.08511053	0.0027432186	-0.07922561	-0.030684419	-0.054440573	-0.08772485	0.032639038	0.07191329	0.074698456	-0.06386227	-0.1092863	0.024293482	0.090626575	0.0025269615	-0.011676291	-0.09315268	0.06327772	-0.036272284	0.0009952548	-0.08129884
-0.08347696	-0.03475749	0.068167955	-0.069245376	0.0750357	-0.016353533	-0.026687691	-0.030462388	-0.026193434	0.018804038	0.0020842818	0.010903347	0.06327171	0.06767305	-0.06335636	-0.046707634	-0.013306059	-0.055577204	0.09051405	0.02160686	0.08128671	-0.0050807483	-0.084115796	0.009057792	0.058046114	-0.062480547	-0.035323977	-0.06914667	0.0045847213	-0.09748932	-0.031432036	-0.020468658
0.085292995	0.02250214	-0.08040066	0.0029997793	-0.06496321	0.08279553	0.089630805	0.07143141	0.018918728	-0.017774459	0.0747751	-0.058644757	-0.06372097	-0.030970637	0.0655408	0.028994435	0.018582996	0.06341285	-0.08534208	-0.027445244	-0.08530939	0.11082966	0.05692373	-0.058778424	-0.081282325	0.032681543	0.094905026	0.08634883	-0.110816106	0.089614265	0.082993634	0.10507315
-0.0202103	-0.04775448	-0.026090149	-0.043139223	-0.031091383	-0.014623732	0.025300695	0.00078975694	0.020685123	0.0127748465	0.01588751	0.043572146	0.0077580083	0.04384509	-0.02679125	-0.030917838	-0.03980301	-0.032382052	0.06113122	0.026400814	0.04045629	0.035602253	-0.02690205	0.049644254	0.026887905	0.052861422	-0.011964323	-0.010811216	0.03505275	-0.0121538	-0.01591621	0.031782866
-0.00046400534	-0.05548453	-0.0141107235	-0.02490202	0.011866588	-0.019661628	-0.035146005	0.0097351605	-0.00977382	0.022251451	-0.02122167	0.033444382	0.02224462	-0.021150835	0.025346624	-0.009724129	0.03974705	-0.013873905	0.04749092	-0.032210376	-0.03332947	0.006182336	-0.026146997	0.043509822	-0.035577983	0.019321313	-0.05256531	-0.01091157	-0.027891753	0.011407319	-0.03860826	0.016497241
-0.09608485	-0.06177064	0.08079207	-0.034486853	0.016577803	-0.0488519	-0.018349733	-0.086182386	-0.08608496	0.10086383	-0.07041606	0.0031586622	0.06661054	0.067958936	-0.053446516	-0.024320168	-0.019904627	-0.045983538	0.053659424	0.11867922	0.1196721	-0.10771945	-0.06461528	0.058572236	0.086411454	0.014486923	-0.0037507059	-0.03784185	0.022307223	-0.0547716	-0.10839329	-0.052264094
0.039711386	-0.0033099288	-0.04546986	0.0721331	-0.009883434	0.018865447	0.039656453	0.044911306	0.082358144	-0.09534137	0.052656945	-0.05145315	-0.024647422	-0.040551774	0.033626936	0.039925016	0.01647742	0.019431414	-0.07045499	-0.037133742	-0.09788066	0.06804471	0.020529786	0.00013781695	-0.011147244	0.004372591	-0.019495796	0.042316914	0.0058470676	0.044718623	0.042634204	0.005983455
0.020034619	-0.0070349737	0.06808285	0.010515947	0.039226353	-0.04688156	-0.057422742	-0.023110768	-0.056588396	-0.002144272	-0.055723436	0.0030938112	0.047755156	0.0060289563	-0.03371082	-0.0047450177	0.046448674	-0.076084584	0.008861398	0.08190829	0.04374239	-0.023476645	0.010697017	0.006356355	0.0073250774	-0.019772144	0.00023054864	-0.025547236	0.07118648	-0.0007869526	-0.0085887145	-0.053111147
-0.026236106	0.059213202	0.017586408	0.042091735	-0.021660332	0.04967637	0.027799219	-0.03004423	-0.021324757	-0.006772407	-0.01085697	0.009519001	0.026470624	-0.027479049	0.03249145	0.040478934	-0.10617798	0.062077947	-0.06067053	0.019113515	-0.047487594	0.04827204	0.03260592	-0.048058648	0.011954915	-0.06626136	-0.00635668	-0.018523172	-0.025455581	0.025717132	0.010986953	-0.04751721
0.0046708975	-0.03320963	0.04590755	-0.002944899	-0.028701795	0.02891816	-0.08374834	-0.040172305	-0.0017313379	0.07199164	-0.027330972	0.07630915	0.038297687	-0.016395632	0.022566633	0.021386323	0.039018087	0.0047686556	-0.008613387	0.04575459	0.057689685	-0.0008946504	-0.036423925	0.05768186	0.0068730465	0.039462272	-0.038649715	-0.012445206	-0.0028329128	-0.051752325	0.013605958	-0.047662914
0.026370885	-0.0007332747	-0.03627567	-0.028698567	-0.028092336	0.01952798	-0.01184518	-0.036849067	0.0249886	-0.030150406	0.041827302	-0.04378981	0.012463517	-0.03389259	-0.011875144	0.03767594	-0.038537934	0.008139612	-0.037046153	0.041385546	-0.0032185188	0.016227573	-0.056912437	-0.037135854	0.0017995756	0.005617417	-0.0253032	-0.05423335	0.03330796	-0.010355161	0.035174638	-0.024801817
-0.014686499	-0.061972164	0.051052604	-0.02225542	0.034318067	0.02600329	0.004501085	-0.0686537	-0.04205498	-0.014337571	-0.008466002	-0.048724465	-0.018980494	-0.02656712	-0.0082777515	0.021136109	-0.028643826	-0.010432133	0.021418331	0.060546532	0.012855187	-0.03121159	-0.016610473	0.055041973	0.028268544	0.025779393	0.028390141	-0.0028914912	0.00084210344	-0.0010040989	-0.025784306	-0.063337035
-0.024877686	-0.052969158	0.074990444	-0.015425486	0.0734289	-0.034906197	-0.0075661074	-0.00867667	-0.014300218	0.030098932	0.0026384157	0.06562942	0.03333933	0.05248627	-0.022659238	-0.08698893	-0.029346574	-0.043633066	0.06056209	0.10276481	0.11361268	-0.09591636	-0.043031402	0.08206323	-0.00043375467	0.0050417683	-0.07312592	-0.0855886	0.055691943	-0.018896062	-0.018327352	-0.0910754
0.02453354	0.0996742	-0.08710646	0.034793396	-0.051555503	0.035529997	0.04636309	0.109587215	0.04447006	-0.10526549	0.036229447	-0.08059168	-0.061182126	-0.03171398	0.08185244	0.0464883	0.029062085	0.0933264	-0.066577025	-0.109514385	-0.09910793	0.065004595	0.07414853	-0.07566431	-0.025201527	0.0017158095	0.019225094	0.13301384	-0.045016423	0.1147339	0.12791836	0.080535986
-0.016908154	0.025900932	-0.03690924	0.016144034	-0.053987138	0.043524243	0.025275461	0.021893369	0.018304007	-0.046414223	0.05398467	-0.04218995	-0.04535071	-0.03098081	-0.0010706753	-0.04109046	-0.08434604	-0.046568148	0.015273537	-0.026140533	-0.0406918	0.008358335	0.036378194	0.033231497	-0.0011607109	0.0032159225	-0.036999676	-0.0076079974	-0.039643977	0.039787114	0.009763009	0.033128444
-0.025788525	-0.017991263	0.019928385	0.0011317169	0.019803058	-0.05670994	-0.0040434394	-0.05462482	-0.0377852	-0.01736554	-0.0039883503	-0.015503716	0.064680696	0.06362936	-0.017972857	-0.034070797	0.0049587735	-0.07286763	0.00080818654	0.013065491	0.018551001	-0.00046561958	-0.056356948	0.028059432	0.03498691	-0.007219214	-0.064479806	-0.09123794	0.05287688	-0.062193632	-0.061340947	-0.014675463
-0.07195765	-0.037447248	0.046614245	-0.036049083	0.050529096	-0.005001794	-0.054652963	0.00043715307	-0.04405749	0.02309128	-0.041252285	0.022673594	-0.002400579	0.009154831	-0.07999233	-0.06267646	0.008256211	0.026644412	-0.011290702	-0.006349244	0.042796195	-0.054775614	0.01600847	0.07717611	0.030355183	-0.03168165	-0.064703226	-0.0014194935	0.06331018	0.002505062	-0.065055855	-0.0032213766
0.0099583445	0.015708609	-0.08811293	-0.0063324226	-0.027303884	0.010171174	0.061194044	0.025283584	0.07802339	-0.06919677	0.053398732	-0.05903116	-0.03894153	-0.0064404733	0.012121949	0.023329513	0.059220638	0.013225415	-0.0018876981	-0.045119874	-0.039368447	0.038994472	0.05461465	-0.0723237	-0.039664574	0.009686232	0.009802345	0.024282984	-0.06023724	0.0493384	0.07426409	0.044717323
-0.11757181	-0.021784978	0.15806517	-0.11069988	0.056514274	-0.07066942	-0.07984195	-0.06765265	-0.09882208	0.08812057	-0.0807955	0.043978292	0.1355746	0.03239267	-0.021861205	-0.05453014	-0.07555692	-0.12233582	0.120119855	0.089217335	0.13518927	-0.11529087	-0.13515118	0.13919762	0.06897893	-0.071490146	-0.08690911	-0.08102026	0.05559154	-0.057838935	-0.065823	-0.11053875
-0.033592384	-0.017086413	0.038674872	-0.022478504	0.046757422	-0.06636217	0.01049068	0.038162958	0.020675365	0.017546209	-0.06134934	-0.01752779	0.043887295	-0.0509469	-0.023464337	-0.006910971	-0.06527505	0.016886787	-0.046661325	0.023451954	0.037617385	0.016982142	-0.047623567	0.014220435	0.030507892	-0.03153483	0.011902005	-0.05403416	-0.03705554	-0.0046024146	-0.020665659	-0.06210187
-0.023511918	-0.012936271	0.015914882	-0.03106089	-0.035982262	0.022756027	0.039699588	-0.03629509	0.031046918	0.0076488294	-0.06418506	-0.019874522	0.03800452	-0.02271285	0.007535789	0.004871895	0.025419971	-0.035454508	-0.002405151	0.021589754	0.039238926	0.009206093	-0.039293356	-0.0069377297	0.0472785	-0.044937994	-0.0642875	0.02554044	-0.036389828	0.000117989715	-0.045612346	-0.04999086
-0.01348464	-0.04118665	0.045515023	0.027573949	-0.024707977	0.017415594	-0.008931011	0.01875129	0.008597195	-0.027102502	0.037187	-0.011447704	0.051893283	0.0686432	-0.0017802479	0.053034246	0.027172348	-0.029091915	-0.019873753	-0.002800629	0.027136693	-0.03654722	0.04306228	-0.0044274414	0.04900491	0.018352205	-0.0039563105	0.0038520363	0.04759779	-0.03343656	-0.051965166	-0.02073214
0.08888069	0.029115684	-0.06375829	0.041801497	-0.10360858	0.042980596	0.11560952	0.076989576	0.096219346	-0.079652674	0.019524693	-0.019378547	-0.01435488	-0.091187485	0.09132576	0.07267054	0.11216732	0.06760332	-0.05214601	-0.11819864	-0.05958122	0.10904408	0.09650028	-0.012704161	-0.098635584	0.02324511	0.0924377	0.09474919	-0.07962913	0.079637475	0.043378152	0.041677017
-0.008184951	-0.01043073	-0.011506276	-0.023167344	-0.014898075	0.020146359	0.031591266	-0.0580779	0.009295987	0.046676043	-0.028645217	0.0011192624	0.020170359	0.016430432	0.016336916	0.005311761	-0.0040975865	-0.028354421	-0.023370331	0.059208475	0.02361678	0.038304426	0.0070128967	0.044196595	0.0016515462	-0.0032896078	0.006782715	-0.034972664	0.0054642684	0.010341169	-0.06732932	-0.009904448
0.05940192	0.054538354	-0.006803398	-0.031990975	-0.046345044	0.05857927	-0.011202893	0.04010957	0.015806258	-0.05060664	-0.034137033	0.027869927	-0.0057639955	-0.02904292	-0.017532716	0.040950276	-0.017741745	0.049975317	-0.0100716315	-0.0039061126	0.019244136	-0.011701923	-0.035726905	-0.053438816	-0.037822567	-0.043355938	0.05791781	0.006757198	-0.014106618	0.020346373	0.029952046	0.012910268
0.009246618	-0.030272638	0.030774856	0.036611974	-0.03139709	0.055903707	0.042220466	0.01964542	0.053431734	0.013164438	0.002955351	-0.054142185	-0.052515827	0.034359768	0.031670116	0.048410486	-0.005569236	-0.016380852	0.027779467	-0.013938322	0.0027303656	0.03838454	0.020416984	0.030525079	-0.010198117	0.010967182	0.011746135	0.011224343	-0.02196007	0.024556022	0.017259616	0.028591529
-0.005128128	0.010959968	-0.01658194	0.039780084	-0.00686992	-0.06005449	-0.0124164885	0.0238466	0.0014792277	-0.018527403	-0.019870445	-0.034318805	-0.036482867	0.003796961	-0.051453575	-0.045224465	0.063385926	-0.0072539016	0.056754373	0.012231042	0.05450948	-0.010725411	-0.009602733	0.011863208	-0.044126846	0.053429596	-0.043183245	-0.05161624	0.049397495	-0.04606922	0.004872271	-0.007884489
0.0068360697	0.048553415	0.0030513466	0.011822554	-0.024981922	0.022262271	-0.0084295245	0.023387432	-0.011656371	-0.04242118	0.049281623	0.036798857	-0.015101305	-0.009439937	-0.019853186	0.05266418	0.048001427	0.0024865903	-0.015044777	-0.041317496	-0.07549627	0.0438875	-0.02464155	0.023644272	0.020140536	0.04119786	0.029882798	0.06964026	-0.069926865	0.009080015	-0.025213862	0.018774513
-0.0043549864	-0.028252939	-0.04390246	0.055913888	0.024980968	0.03992509	-0.0013571243	0.06774404	0.037371207	-0.008707168	0.0005068062	-0.027926391	0.0069377148	-0.072027	0.03515088	0.010969051	0.104428075	-0.009130087	-0.02160128	0.026107041	0.0019044819	0.06978952	-0.0131084835	0.015388691	-0.08105768	0.06959385	-0.0051618842	0.009810567	-0.028747953	0.015539849	0.04979951	0.075226694
-0.031772472	-0.06021332	0.009921645	-0.025299344	0.046552178	-0.032258637	-0.035597436	-0.03408479	0.025396787	0.009450441	-0.012411891	0.034388226	0.026005212	-0.025974378	0.0036148375	-0.06350217	-0.02246009	0.016079396	0.044129077	-0.028107777	-0.026467517	0.0032921636	-0.052540895	0.06703768	0.050759036	0.005261102	-0.010023094	-0.010342075	0.010821009	-0.042660683	-0.041264854	-0.012457012
-0.023253473	0.026796717	0.026604963	-0.057854176	-0.0055691474	0.034166638	-0.020155037	-0.03526738	0.035297234	0.0013181253	-0.008549027	-0.014886489	0.0062846406	0.03342895	-0.002154279	0.020549443	-0.03150539	0.0033868852	0.006142945	-0.023623513	-0.0014651787	-0.033224568	0.013797817	-0.011117642	0.04327581	0.0021148655	0.013592849	0.024025423	0.0484269	-0.03215632	-0.039985504	-0.038172413
0.028167503	-0.039989132	-0.019608624	0.00039186137	-0.018604128	0.025314003	-0.031071076	0.02970368	-0.0016075982	-0.036606673	-0.039991777	0.0456618	-0.0012497053	0.0086721685	0.029008362	-0.016052917	-0.022457885	-0.019221101	0.0153864715	-0.013260696	0.0038499779	-0.04276688	-0.0055624237	-0.034303743	0.013683878	0.006457411	-0.037599258	-0.037505787	-0.00981975	0.0147975	-0.028455887	0.024633026
-0.013586863	-0.016776199	-0.02222765	-0.04186368	0.017999155	-0.039392818	-0.0066105067	-0.005818758	-0.0150369145	0.064097315	-0.06164701	-0.018639639	0.008416011	0.0746347	0.03480532	0.0013595122	0.03011862	-0.023986852	0.019787524	-0.027916878	-0.0006311646	-0.0055015576	0.018455796	0.021142509	0.030149825	-0.044756785	-0.050916467	-0.0076341587	-0.005882261	0.02731336	-0.010152701	-0.021221606
-0.036843274	0.039701056	0.021722976	-0.021094924	0.042507984	-0.061848186	0.0062281853	-0.029876197	-0.026200473	0.00059008726	-0.013873471	-0.053152498	0.015916374	0.045371737	-0.069205746	0.0117390165	-0.041028593	0.016938245	0.06707045	0.0034488575	0.0100054955	-0.06860485	-0.01716861	-0.017035015	-0.02898965	-0.012392239	0.007126461	-0.04698568	0.008291709	-0.0049107084	0.017562618	-0.05047219
0.031437438	-0.010744375	-0.0469129	0.0415721	-0.013897905	0.0074380445	-0.017904317	0.030109145	-0.009674378	-0.062819354	0.008959729	0.011839733	0.016705679	-0.01765812	-0.02704373	0.027808115	-0.008753152	0.022460334	0.017464735	-0.0024563554	0.023207953	0.016719624	-0.019529903	0.01766607	-0.009934459	0.045867417	-0.03393196	0.05479564	-0.014405612	-0.017238038	0.017899876	-0.023069832
0.004320743	-0.007232994	-0.021526754	-0.05216368	0.06220799	-0.04460046	0.003582166	-0.00035838108	-0.06478547	0.06730112	-0.02540314	0.08834468	-0.015451214	0.035956122	0.0004971125	-0.034505047	-0.02042124	0.03321121	-0.008966629	0.029410828	0.015367318	-0.03591073	-0.033902597	0.015789868	0.0383272	-0.02700091	-0.060529537	-0.048218235	0.044272613	0.019398272	0.0196965	0.015765669
0.0061063124	-0.037287604	0.04364342	-0.08256925	-0.0045609004	0.0224358	-0.023533376	-0.004930076	-0.031044234	-0.005463474	-0.008041329	-0.04604957	-0.00780616	-0.022683717	-0.045708332	0.019422973	-0.06610761	-0.07191736	0.0419318	-0.009666357	-0.009082706	0.01189721	-0.016126493	-0.0040263273	0.026073758	-0.012670677	-0.054136686	0.0020674146	0.03066407	-0.032158986	-0.05573128	-0.008149119
-0.008396853	0.054625522	-0.06320469	0.057871636	-0.008578289	-0.032405883	0.021797482	0.05867073	0.053774223	0.024614993	-0.016790345	0.03633338	-0.035011545	-0.040087078	-0.0064412695	0.022307388	0.066708885	0.04341927	0.021455394	-0.035053656	-0.041724045	-0.0026169256	0.042569604	0.034579303	0.022337558	0.059594143	-0.029834924	0.0012738071	-0.043941695	0.046330452	0.0052940515	0.01671449
-0.12811147	-0.1799076	0.13970712	-0.096251905	0.13869916	-0.1144668	-0.13054027	-0.09571138	-0.12644161	0.17681402	-0.09171535	0.15194377	0.15926528	0.16812024	-0.11679447	-0.13495947	-0.057680283	-0.113920994	0.12982246	0.13619022	0.19095641	-0.1676129	-0.13510063	0.17917332	0.085989974	-0.02580054	-0.1592252	-0.17631976	0.13128674	-0.12918846	-0.17784151	-0.11991103
-0.038662057	-0.024784489	0.051083572	0.041798797	-0.006364266	-0.0027077687	0.01140189	0.03776552	0.00068340683	-0.049354598	0.050211802	-0.017699033	0.038837142	0.052440517	-0.03432543	-0.009464747	0.070441894	-0.02273478	0.023343066	0.03459632	0.021908611	-0.04532257	-0.053619087	0.008117806	0.038353566	0.041418057	0.011828032	-0.011509116	0.028884921	0.00011206869	0.030762978	0.043074187
-0.042187218	-0.055956353	0.038796782	-0.081236295	0.025712239	-0.071764566	0.01189997	-0.07794443	-0.03658257	0.056545533	-0.0649996	0.038074885	0.09512069	0.0331812	-0.016655287	-0.03378535	-0.053258322	-0.08278718	0.04461169	0.023644011	-0.0010516304	-0.029655326	0.0025968393	0.011251414	0.053809028	-0.04851782	0.010214907	-0.032989535	0.059409942	0.00015296142	-0.0385399	-0.023182489
-0.11093772	-0.1253016	0.08194994	-0.109026864	0.03874024	-0.12380596	-0.06997297	-0.10052429	-0.08954185	0.070137694	-0.09886992	0.06719421	0.14915131	0.07029452	-0.047146987	-0.094403364	-0.017465983	-0.07618547	0.13415368	0.068335466	0.107398584	-0.049628332	-0.039043684	0.06309588	0.10795307	-0.056910202	-0.1030155	-0.06814034	0.1452939	-0.044895798	-0.1388698	-0.10012887
0.017341157	-0.08287677	0.060725056	-0.053345095	0.0457372	-0.038855348	-0.026421417	0.00029252353	-0.0029635685	0.051905	-0.08479002	0.08106745	0.056707952	0.009746438	-0.03391834	-0.0327009	-0.029826725	-0.016242968	0.020763863	0.005155589	0.054254353	-0.0009446275	-0.062351353	0.06798808	0.065355204	0.016150113	-0.026536837	-0.00018078796	0.045690235	-0.030132826	0.01791747	-0.043588962
0.01454713	-0.01221861	0.028991994	-0.004381685	0.028542282	-0.03648664	-0.019116761	0.029948192	0.038871966	-0.019116951	-0.06158631	0.053852074	0.016753105	0.079510495	-0.0656756	-0.01571542	0.07128392	0.037285056	0.018888677	0.022764524	0.026062064	-0.009240671	-0.008772463	0.019436385	0.048156496	-0.012479801	-0.053382084	-0.0055741183	0.049513917	-0.025452247	0.029028092	0.034319315
-0.009492863	0.029459646	0.0592543	-0.028279021	0.06486667	0.0047714724	-0.005858364	-0.0284503	-0.0137532735	0.015395063	-0.06589528	-1.9962254e-05	-0.006627716	0.039025918	-0.044553354	0.002150453	0.010721394	-0.021362888	0.07504229	-0.00016410113	0.074226566	0.017567659	-0.062020432	0.024847645	0.026575623	0.0011201928	-0.023862896	-0.051383287	0.052155387	-0.062908374	-0.01884265	0.010861116
-0.027482511	-0.025767209	0.032580663	-0.041002218	0.07237863	-0.060586236	-0.09279476	-0.08763671	-0.054255683	0.059230067	-0.040600494	0.044023007	0.088471256	0.09650496	-0.11189942	-0.035289828	-0.0860065	-0.097535655	0.05668572	0.03675015	0.0740121	-0.08774469	-0.111696824	0.07075067	0.1065866	-0.076519966	-0.09194777	-0.098324895	0.0278538	-0.12487393	-0.042220328	-0.052358523
-0.015547173	0.029183228	-0.048527088	0.05914534	-0.057608165	0.02916952	0.03636111	0.04408403	0.032004535	-0.004093655	0.024283104	-0.08488424	0.0019402045	0.0151508385	0.024027541	0.07461251	-0.014393285	-0.023119077	0.016675124	-0.06708046	0.007971565	0.048823427	0.04379824	-0.038203627	-0.047151368	0.032231957	0.04465587	0.06355924	0.01829045	0.057112135	-0.02295784	0.054301895
-0.019930733	-0.017536178	0.028652254	-0.056581657	0.030770335	-0.010348466	-0.037181564	-0.08770996	-0.06533927	0.05930034	0.008262034	0.057770748	0.09783405	0.018273707	-0.043193776	-0.017735811	-0.13008066	-0.11526282	0.056694426	0.10194706	0.049684577	-0.11310645	-0.083943315	0.06813491	0.040283713	-0.062081996	-0.026501546	-0.11745752	0.064640895	-0.03998887	-0.03997068	-0.07774256
-0.067787744	-0.05621336	0.021329286	-0.050005075	0.05978804	-0.05978679	-0.028754452	-0.034430724	-0.08808787	0.079778545	-0.07831168	0.011760882	0.04646837	0.06989838	-0.020332024	-0.050954495	-0.0051768543	-0.05073917	0.08237404	0.063402385	0.008499459	-0.07968661	-0.018057572	0.011946152	0.049102336	0.039411664	-0.008992351	-0.028364597	0.069674864	-0.092561744	-0.007264444	-0.047817152
-0.005161279	0.03878799	-0.037940357	0.005147093	0.021099456	0.06639678	0.050720893	0.093429744	0.03490433	-0.061724972	0.050878163	0.011059377	-0.0273406	-0.008896622	0.04962196	-0.006721598	0.065818876	0.07909957	-0.051925894	-0.012375767	-0.012051428	0.054464277	-0.0004112468	-0.051997	-0.06537764	0.043564785	0.026519718	0.023674013	-0.043673333	0.069815636	-0.00039343076	0.08512611
0.104384266	0.06423492	-0.039515413	0.04948894	-0.061467506	0.057896223	0.10946603	0.050489355	0.072773695	-0.057443626	0.09671876	-0.12523325	-0.06653115	-0.09188125	0.056530207	0.04897913	-0.04116101	0.12940702	-0.13717738	-0.1168839	-0.040598407	0.070392825	0.07684968	-0.08555767	-0.13276291	0.0021039108	0.048708055	0.13273008	-0.052810952	0.07179497	0.1385273	0.1151716
-0.16442882	-0.12701435	0.19080028	-0.16228543	0.18790956	-0.0981022	-0.14256728	-0.16451508	-0.16836901	0.11646766	-0.12162523	0.11093607	0.17672718	0.13896856	-0.107384644	-0.1614359	-0.009663484	-0.08487879	0.18295503	0.16381095	0.12087515	-0.14001176	-0.1358309	0.09223737	0.08049061	0.03815577	-0.17137383	-0.16637835	0.11112888	-0.15925716	-0.16809866	-0.1497969
-0.07789917	-0.004322613	0.0068480456	-0.019664835	0.07033351	-0.04170594	-0.039341304	-0.093112044	0.00043847354	0.052186374	-0.07021385	0.009424124	0.07267813	-0.027531236	-0.07325085	-0.044058748	-0.053528875	-0.083756246	0.07885963	0.061012644	0.057601035	-0.0015815238	-0.022636257	0.013796261	0.01289066	-0.06832019	0.0051485957	-0.028409842	-0.007345864	-0.031114466	-0.092996135	-0.017498326
-0.0139262825	-0.0783409	-0.0003179861	0.013561159	0.033558063	-0.038728766	0.01722309	-0.029384146	-0.04798671	0.03524876	-0.059836853	0.07707026	-0.020398768	0.012220793	-0.05922792	-0.018633343	0.06362207	0.023386145	0.010983536	0.04402084	-0.025404397	-0.0128040025	0.03859728	-0.02399113	0.0050837416	0.07786583	-0.051733296	0.047470935	-0.02099287	-0.06337214	-0.058161087	-0.0351812
0.09453207	0.02389395	-0.015718251	0.082905665	-0.026434911	0.022200985	0.048753712	0.09850662	0.09706913	-0.049146865	0.055735342	-0.08494656	-0.058096778	-0.03775479	0.099941	0.07141786	0.006673949	0.009009542	-0.047784097	-0.070529975	-0.08359475	0.036310878	0.010423543	-0.03961434	-0.0700773	-0.070451885	0.053821445	0.069838874	-0.042895697	0.08049686	0.078976765	0.023149047
-0.06788535	-0.038293816	0.07382083	-0.06254339	0.09750836	-0.07922698	-0.07770527	-0.0077704415	-0.018226415	0.036500897	-0.10578155	0.07525637	0.068402834	0.08772442	-0.06562148	-0.103335045	0.015410684	-0.09233693	0.006455293	0.04603774	0.08364781	-0.085709736	-0.012347749	0.015935956	0.10773328	0.07421627	-0.056627624	-0.059985172	0.09898148	-0.055576827	-0.096244216	-0.09626295
0.008124024	-0.06284012	0.08902261	-0.021461962	0.074146345	-0.009235812	0.001430498	0.008832442	0.007339329	-0.0018088915	-0.024104968	0.058084384	0.06730676	0.02514969	-0.06627185	-0.029773666	0.04507973	-0.0836871	0.02496704	0.01556079	0.082655825	-0.05116896	0.0009846839	0.061920464	0.050738383	0.033677064	-0.035853945	0.013736436	0.014402158	-0.057088602	-0.04231629	-0.013841912
0.029093541	0.037774526	-0.03835478	-0.006503789	0.046944477	0.036699634	0.03024935	0.013100525	-0.02606118	0.012407317	-0.021136718	0.022758555	-0.0291894	-0.016409459	-0.016499642	0.0390506	-0.024120318	-0.022676315	0.020286018	0.01590888	-0.03823201	-0.015969591	-0.032860246	-0.015842604	0.020361548	0.0018113652	0.052606896	0.0016616004	-0.03434849	0.016799858	-0.034193896	0.041870236
0.03313542	-0.039970126	-0.007973587	0.042657427	-0.013330156	-0.017295443	0.03370938	0.06221423	-0.019694606	0.02439147	-0.037794672	0.03309929	-0.060672347	-0.04438368	-0.019270198	0.0328362	0.04787058	0.010659332	0.028500892	0.034452308	-0.025746053	-0.02258357	0.05695053	-0.0345766	-0.028810147	0.011982455	0.04847561	0.024229312	-0.052776035	0.02168467	-0.007995761	0.020046484
0.024507482	0.010543726	-0.028234346	-0.007669945	-0.03227544	-0.0048164004	-0.00895698	-0.0018747059	-0.0033233084	-0.01944281	0.029491385	-0.06734444	-0.017755166	0.021943292	-0.0047945655	0.020206915	-0.05775659	-0.00084812497	0.053005476	0.025702158	0.0072329976	0.019636406	-0.050215352	-0.023282664	0.0245288	-0.038209565	-0.033541236	-0.043911558	-0.014716592	-0.056401026	-0.044514295	-0.040093362
-0.015401545	0.00053421455	0.04563523	0.027468381	-0.008180115	0.02060176	0.045208476	-0.01529734	-0.019354062	0.005523454	0.019682981	-0.04749529	0.012367793	-0.0648436	0.0056913043	0.0032917263	0.0057102935	-0.021285959	0.0046479166	0.012794959	-0.03558362	-0.021417407	0.009173244	0.021623444	-0.006705943	0.010783384	0.028064273	0.016278494	-0.020899983	-0.02380422	0.025019398	0.006973928
-0.04186032	-0.05832027	0.017955476	-0.05867103	0.049457736	-0.006521025	-0.04928154	-0.085350044	-0.0749998	0.021526873	-0.045553148	0.06375628	0.039658148	0.018577293	-0.077746466	-0.0145885255	0.013389332	0.0058726068	0.09265405	0.041090157	0.042653564	0.0105267875	-0.036487445	0.011180577	0.04081254	-0.024280714	-0.044180676	-0.05923558	-0.015129618	0.00018352554	-0.014279108	-0.021881575
0.056116696	0.009693472	-0.029734071	0.04647487	-0.039488565	-0.0030885637	0.06160294	0.05633867	-0.020641021	-0.053078923	-0.041407485	-0.006127155	-0.023450278	0.0117131425	-0.02448955	0.041499425	-0.10002716	0.022165406	-0.021567967	-0.018741602	-0.018226659	-0.013619515	-0.047135323	-0.047226377	-0.038067203	-0.06562542	-0.028242901	0.024427097	-0.030138822	0.049431004	-0.027938249	0.04135094
0.02418523	-0.04575985	0.015126086	-0.091179654	-0.0015512109	0.0005343025	-0.028404582	-0.012871343	-0.051702622	-0.011881123	-0.06924961	0.046069838	0.0009242792	0.02794176	-0.047272597	-0.022328753	0.06638237	0.022537034	0.033398774	0.069441594	-0.022637725	-0.05128045	-0.009689647	0.026766175	0.051740967	0.0053773574	-0.03502272	-0.0072192606	0.019775942	-0.017296888	-0.036991324	-0.060728196
-0.092672594	-0.053419575	0.10919818	-0.031675115	0.059487276	-0.051029235	-0.068133436	-0.09067773	-0.050366122	0.11177863	-0.08509915	0.0629509	0.030703036	0.08351952	-0.022905389	-0.03301119	0.01144023	-0.021705313	0.08633549	0.02659208	0.013289865	-0.050706975	-0.07671311	0.10125515	0.046777707	-0.04701128	-0.0045970613	-0.058040597	0.10764278	-0.012468287	-0.06180117	-0.05179019
0.060159046	0.022565486	-0.03504587	0.046076406	0.015890691	0.037106358	0.004866861	0.06410904	0.058746487	0.0038961403	-0.023482103	0.024496391	-0.031561036	0.017252056	0.019921277	0.024237476	0.06273972	-0.010495608	-0.007814093	0.0088092545	-0.05955557	0.010184841	-0.03628529	-0.06874316	-0.044956762	-0.031002477	-0.027268285	0.021703612	-0.04953419	0.032355033	0.04786515	0.04934749
0.040101033	0.015741916	-0.014436283	0.017834945	-0.056459643	0.020138858	0.0010605823	0.02480103	0.01405395	0.053883884	0.021122392	-0.030492982	-0.024187658	-0.043006174	-0.047090396	0.020042762	-0.05394388	0.011668059	0.04554391	-0.017383797	-0.012647365	0.032073062	0.021925516	0.024346666	-0.008979772	-0.049455166	-0.020770587	-0.034737807	0.00027147314	0.0011257103	-0.03786145	-0.055194303
-0.07440716	-0.04580045	0.11191248	-0.111312225	0.10051188	-0.13696292	-0.08138003	-0.08490203	-0.045609195	0.114764854	-0.06941046	0.046179894	0.14987917	0.17179032	-0.1451247	-0.054498784	-0.03467591	-0.089315064	0.12305292	0.100508615	0.08180177	-0.14023423	-0.110006504	0.14558849	0.073244	-0.06067244	-0.07549057	-0.081976786	0.11624989	-0.09705966	-0.14932998	-0.07965393
-0.00040274247	0.054621287	-0.071118854	0.076496735	-0.061103098	0.076938525	0.007048192	0.05944737	0.02076839	-0.08972791	-0.0038967177	-0.016116764	-0.078179166	-0.05045649	0.046198886	0.029689824	-0.010467385	0.08464385	-0.056357034	-0.07258483	-0.0795659	0.09480803	0.04437915	-0.055309206	-0.027568402	-0.0038220251	0.025064228	0.024510263	-0.015914505	0.08048327	0.06811446	0.026627067
-0.029124696	0.0037175764	-0.015482231	0.0603644	0.02061596	0.04243428	-0.0150387315	-0.023361348	-0.010404531	0.023894476	-0.008041527	-0.002933533	0.005500423	-0.052261904	0.032680254	0.04361715	0.019786596	-0.02905127	-0.046534292	0.020056732	-0.060437046	0.021927772	-0.032582324	-0.007947714	-0.007351896	-0.056083646	-0.040829018	0.0008814514	-0.013283895	0.038288362	-0.016144078	-0.009920055
-0.14333768	-0.09940724	0.17828518	-0.088734634	0.12645802	-0.11754087	-0.17209548	-0.13027078	-0.17006037	0.18441838	-0.070552886	0.0860524	0.18209758	0.13917373	-0.15220985	-0.09726194	-0.065507375	-0.11086251	0.10096766	0.15059657	0.16462925	-0.09508566	-0.09311928	0.122661404	0.10298299	-0.068358295	-0.07710712	-0.15145795	0.124508716	-0.16547428	-0.15716162	-0.12565298
0.050313976	0.0221824	-0.014781014	0.025541289	-0.026233913	0.080489956	-0.0028410298	0.0774852	0.072465055	-0.03580918	0.06089262	-0.043912925	-0.018076703	-0.0017440841	0.06955718	0.0017302445	0.054620966	0.04287762	-0.03478706	-0.050180167	-0.03419816	0.013858608	-0.011331423	-0.051471904	-0.054320287	0.041032378	0.032133058	0.054189306	-0.08653169	0.05119582	0.028581675	0.0006609931
0.10596248	0.092890345	-0.0618888	0.01892608	-0.096043326	0.0358274	0.08949178	0.01880983	0.03459044	-0.032514673	0.03182029	-0.028412104	-0.03960029	-0.03594355	0.07319736	0.07533615	-0.053317647	0.04007304	-0.047188565	-0.05510082	-0.025471637	0.020933459	0.049704634	-0.105602026	-0.06901342	-0.007652651	0.04381285	0.018142268	-0.055442154	0.106594816	0.08178752	0.06552368
-0.07234179	0.010593547	0.06191255	-0.048635747	0.009676596	-0.018781472	-0.0009074485	-0.07859386	-0.033680785	0.046510182	-0.0244591	-0.012930692	-0.01368139	0.038227785	-0.07182916	0.031880666	0.025539018	0.0028636602	0.034917776	0.036851104	0.06537223	0.0038303162	-0.016169487	0.011860479	-0.012456317	-0.05697804	-0.015326283	-0.031914745	0.04909409	0.011349405	-0.07604044	-0.028722104
-0.00694356	0.065552115	-0.031050228	-0.008128631	-0.014079821	0.008868405	-0.0055271434	0.024460802	-0.010339376	-0.03817684	0.009171001	-0.05696381	-0.05978942	-0.022880653	0.08894105	0.07514644	0.023807125	0.036694687	-0.05488714	-0.0018096057	0.0052281907	0.053446878	0.06618526	-0.027254794	-0.009487646	-0.016796617	0.06374889	0.023313299	-0.023253899	0.019084472	0.055123348	0.090891264
0.0018968199	-0.011391666	-0.0147602055	0.018767877	-0.0124353655	0.015465136	0.014137299	-0.023126122	-0.012653516	-0.023543796	0.03878926	-0.024043122	0.003546656	0.0147213135	0.010106049	0.04337376	-0.08551951	0.045958366	-0.03140466	-0.018632786	0.041375514	-0.032396864	-0.014059127	-0.008801988	-0.0007730026	-0.03842281	0.035042506	-0.045409076	0.037388872	0.02166302	-0.0022082392	-0.049724307
0.014506408	0.052109845	-0.0115167415	0.020785907	-0.039423935	-0.020184945	-0.026762264	-0.025642833	0.023871383	0.0373467	0.01941255	0.02471043	-0.011393295	0.02157439	-0.0004715466	-0.0013899466	0.025737727	0.013739928	0.0063341614	0.019390598	-0.004362568	-0.031601176	0.035893757	-0.022750184	0.03585851	-0.046598617	0.01998061	0.04411561	0.008868541	-0.045756716	-0.033662874	-0.020750292
0.027723731	0.028197858	0.031362336	0.029785879	-0.02340842	0.047158584	0.0236625	-0.0153493285	0.06663564	0.028441498	-0.008721004	-0.059815165	-0.027358683	-0.041954085	0.025780553	0.0192824	-0.05733107	0.0011321577	-0.059524916	0.00062326924	-0.009146589	0.021231856	0.035245504	-0.05226	0.024573434	-0.061603263	-0.026386002	-0.018718928	-0.006863362	0.054189533	0.053722486	-0.026723554
-0.06384377	-0.019908577	0.0763402	-0.034857567	0.07180528	-0.028736046	-0.08262282	-0.040595576	-0.028418455	0.07200092	-0.0017816034	0.061951898	0.07793994	0.012751739	-0.07638361	-0.026451588	-0.069751605	-0.09623516	0.06958188	0.016104719	0.025577059	-0.04888235	-0.03291407	0.106246196	0.042895906	0.0070359306	-0.07301082	-0.10404163	0.014541808	-0.06592222	-0.02683552	-0.0126124285
0.02966832	0.021843618	-0.06782341	0.02422684	-0.07816764	0.023075873	0.09877623	0.036491714	0.109925635	-0.0993852	0.04839636	-0.10352013	-0.032229308	-0.025369192	0.016915785	0.04041933	0.07372075	0.02590341	-0.03456534	-0.102930345	-0.036764856	0.038046997	0.08256578	-0.09979068	-0.009703727	-0.015965449	0.01348844	0.051936273	-0.10101638	0.1079127	0.03885686	0.052354965
-0.07390994	0.010235637	0.045937587	-0.06768226	0.029714005	-0.083093636	-0.012790372	-0.022353005	0.015923778	0.03869342	-0.011643354	0.06258516	0.06830488	0.081090026	-0.016969739	-0.02659466	0.009964897	-0.07909745	0.051500227	-0.016169423	-0.009419528	-0.00876316	-0.023580376	0.058898404	0.07019909	-0.043558475	-0.02347358	-0.008307867	0.04983958	-0.035703365	-0.043082286	-0.089188814
0.008387641	0.03426637	0.016462483	0.04086088	-0.030414484	-0.08067777	-0.055964082	-0.047996197	0.023104522	-0.011216439	-0.05670325	0.0009586126	0.024176724	-0.046110325	-0.03034434	0.013293001	-0.10261272	-0.038178086	0.04153567	0.040171966	0.04308004	-0.030785264	-0.0856061	0.049208846	0.01688531	-0.004656327	-0.031439513	-0.048795313	-0.009788753	-0.0032220373	0.02101258	-0.02074126
0.046963923	0.031994037	-0.032052737	-0.021547187	-0.02842254	0.025116188	0.015435891	0.013877893	-0.01686538	-0.055752568	-0.00042685182	-0.0008325575	-0.03855452	-0.05202077	0.060689103	0.017272437	0.08505237	0.033307493	-0.064204164	-0.057388783	-0.10058795	0.04594451	0.009399268	-0.009992709	-0.034086496	0.10018835	0.041350976	0.09560771	-0.0139927305	0.057219602	0.07298956	0.041431356
-0.005253991	-0.043713957	-0.009246311	-0.062811665	0.008898535	-0.02503821	-0.03538094	-0.06399264	-0.051167775	0.055577278	-0.052429475	0.00073353545	0.0018431919	0.03992013	-0.040373363	-0.012872107	-0.020448642	0.01993029	-0.010842332	0.055784825	0.044335846	-0.0056357286	-0.026271526	0.036468696	0.029377155	0.015469198	-0.054332986	-0.051783364	0.04232423	0.005264362	-0.035308238	-0.074340545
-0.0402487	0.0029080797	0.01625587	-0.06250342	0.065713994	-0.03578704	-0.037708	-0.0568936	0.003260536	0.001222868	-0.04162019	-0.02262136	0.065350756	0.021547083	-0.07855226	-0.060659118	0.008162961	-0.011837665	0.0557655	-0.018905893	0.070532806	0.021758582	-0.017386898	0.042706672	0.03848719	0.044922993	-0.039070476	0.015617559	0.0043634586	-0.01610733	0.0040368065	0.03397101
-0.023193602	0.026496185	0.03710526	-0.009648333	0.014027287	0.039344076	-0.03329371	-0.014807431	-0.04492423	0.031129355	0.029910985	-0.025634887	0.028056273	-0.008846989	0.03913172	-0.045239992	0.064885505	-0.045552384	0.055664368	-0.013128495	-0.025401415	-0.040630233	0.05929531	0.026366673	0.018143853	-0.0018677135	-0.011933761	-0.032068312	0.04564484	-0.035194438	-0.048412785	0.037602875
-0.012309333	0.06929141	-0.029806469	-0.0070298603	-0.06827439	-0.0013787017	0.06218596	0.058394477	-0.013064687	-0.008972919	0.03570749	-0.057103157	-0.0011675328	-0.013446104	0.07707572	0.012292337	-0.033604383	-0.022191472	0.0118090715	-0.04294808	-0.0026101952	0.020288348	0.0364117	0.015399673	-0.023630396	-0.09524577	0.04470874	0.053486075	0.023248337	0.007170008	-0.016837072	0.043951973
-0.123574436	-0.05572545	0.115249924	-0.03720734	0.03202283	-0.10403396	-0.105805725	-0.046007533	-0.062359016	0.0857558	-0.055190876	0.1051282	0.06121155	0.09120764	-0.049909804	-0.12592582	-0.028596018	-0.08895569	0.12730174	0.0600108	0.12934536	-0.09460066	-0.05071757	0.04802395	0.09062721	-0.048803605	-0.09906445	-0.078624606	0.123757705	-0.124173045	-0.123225376	-0.13043538
0.08597243	0.01460626	-0.039191425	0.025687326	-0.05741671	0.009099347	0.03900384	0.016894104	0.044318844	-0.006815865	0.03604443	-0.04892872	-0.025411874	-0.043539185	0.0048773126	0.07877133	-0.0066135786	0.067993104	-0.046541058	-0.061671592	-0.032015428	0.0309501	0.023739079	-0.06533937	-0.030821031	-0.053680222	-0.026734404	0.007178326	-0.010015816	0.0619176	0.05810371	0.04271803
-0.004320353	-0.021286834	0.05740877	-0.011415181	0.05143064	-0.023384087	0.013595804	-0.023642616	0.0064594755	-0.005547848	-0.064967714	0.06311574	0.020018118	0.05991782	0.0015865538	-0.05517727	-0.028171394	-0.046194766	-0.022327075	-0.006133137	0.0677362	-0.038704682	-0.04692647	0.02592914	0.035632648	0.023397692	-0.027820807	-0.014358118	-0.021595284	0.009724825	0.0060112667	0.013196701
-0.01825274	0.00073738256	-0.039043915	0.021503197	0.0060614	0.060856827	-0.013695101	-0.025167633	0.026295207	-0.045045096	0.01108797	0.05708943	0.0074382955	0.017008264	-0.014433081	0.008469498	0.053221688	0.010914902	0.017095972	0.02396587	-0.019237671	0.00090427254	-0.026255012	0.014017014	-0.014679867	0.004773081	0.032835398	0.008951386	-0.007508318	0.03695887	-0.033136286	0.0569312
-6.4939944e-05	-0.04743814	0.016475096	-0.06338551	-0.0060944143	-0.0085033495	0.03345404	-0.009686832	0.020651732	0.0038130144	-0.019121638	0.038876723	-0.0021562423	0.026798896	-0.048086673	0.016938003	0.06413868	0.051450077	-0.021024369	-0.023822557	-0.042366512	0.048072506	-0.0058963066	0.00884319	-0.0039509116	-0.00073208864	-0.07874618	0.049925845	-0.030342696	-0.004005024	0.012947938	0.017201941
-0.09733711	-0.047519732	0.047487628	-0.09317028	0.046646327	-0.09634496	-0.035404198	-0.02602873	-0.12041266	0.07158107	-0.05260687	0.05146528	0.027954523	0.10803907	-0.060073413	-0.054485135	-0.021793405	-0.03272639	0.04013739	0.026063778	0.0173374	-0.023492366	-0.0075363657	0.098384045	0.028620314	-0.027973393	0.0022519645	-0.10971811	0.06129589	-0.094632596	-0.113181256	-0.08415675
-0.0128963245	0.062290184	0.041360553	0.06475675	-0.042811144	-0.021189049	0.041785087	0.051670548	-0.0034600752	0.028361628	0.028707596	-0.03143912	-0.037470195	-0.04316518	0.026201319	0.03794843	-0.06566261	-0.011651171	-0.0056368755	0.012879628	-0.023056105	0.022290263	0.035478648	-0.008532766	-0.025508264	-0.055293314	0.05759547	-0.03641215	-0.01603767	-0.027667487	0.036746223	-0.047923267
-0.076118335	-0.121931344	0.096913755	-0.10823385	0.08942111	-0.023523066	-0.092850894	-0.12527484	-0.06202329	0.048362814	-0.032583665	0.093970716	0.082657896	0.045858614	-0.10023308	-0.10525357	-0.0977526	-0.051894784	0.13160488	0.026801301	0.12293343	-0.11913052	-0.022885727	0.0322084	0.061545376	-0.11343537	-0.1049458	-0.07972994	0.1070269	-0.07083454	-0.10003494	-0.1459737
-0.054013904	-0.06690129	0.01173006	-0.05876512	-0.0023695966	-0.0029239503	-0.047005784	-0.05653236	0.02744349	-0.025414765	0.0015786018	-0.055076845	0.05844393	0.040163387	0.038839582	-0.017413415	-0.027819263	0.011820032	0.073806584	0.02033431	0.08015394	-0.07699992	-0.021401893	0.0026732483	0.007170521	-0.001552527	0.026692502	0.002141994	0.023168147	-0.046942506	-0.047127955	0.0067785163
-0.06918873	-0.0404956	0.0232027	-0.069732815	0.016907847	-0.006136487	-0.061841108	-0.048124693	-0.07318672	0.03282594	-0.044510983	0.03165671	0.006927533	0.06401922	-0.00276108	-0.027282897	0.019369278	-0.034496035	-0.0035952132	0.018827323	0.05296327	-0.03163806	-0.06700279	0.056034334	0.009263636	0.036386304	-0.04987026	-0.06595505	-0.0020577186	-0.06509532	-0.065728076	-0.043022756
0.02368693	-0.07087534	0.041617814	-0.053492125	-0.0074088154	-0.025493404	0.0040201154	0.026411846	-0.015094909	0.027341183	0.006167843	0.040999155	-0.021021074	-0.02534815	0.004574681	0.012090811	-0.0036090987	0.025479492	0.03820281	0.038415927	-0.010163643	-0.039929714	-0.04989977	0.049656183	0.0030491112	-0.03842127	-0.044279195	-0.0053486186	0.07550564	-0.018237652	-0.008658413	-0.027500268
-0.028889159	-0.03401797	0.0049086865	-0.051261008	0.038585316	-0.058399446	-0.012380232	-0.10063569	0.0046714824	0.07341819	-0.023252906	0.0047893343	9.3087096e-05	0.06830254	-0.012437302	0.0060528275	-0.021744916	-0.010190759	0.028060295	0.050944034	0.011708361	-0.03389522	-0.06558479	0.0027297095	0.011295039	-0.07329976	-0.057757102	-0.07494972	-0.011625532	-0.015877256	-0.060708508	-0.06045862
0.030924365	-0.050668642	-0.037053943	-0.026849676	-0.019019097	0.019259214	0.034733173	-0.024201887	-0.04155681	-0.05357799	-0.005876317	0.0021927066	-0.030082753	-0.030102093	0.04914566	-0.037984204	-0.0031160123	0.039410066	-0.024707768	-0.059627302	-0.049663603	-0.036655348	-0.017547028	0.023350853	0.0395449	-0.025191097	-0.05124896	0.054736517	0.010461312	-0.010990358	-0.01914866	0.008990965
0.01708862	0.033375576	0.026157927	0.027083965	-0.02848706	0.017461518	-0.018413281	0.049201153	-0.034865767	0.028169842	-0.018191313	-0.0055573033	-0.04761171	-0.0036761656	-0.0070816767	-0.0017928231	0.03718226	0.049664162	0.026015172	0.035678767	-0.05696734	0.019559877	0.04581215	0.033769894	0.011913812	-0.017126584	0.021838415	0.0077179126	-0.043374535	0.057996724	-0.040692803	0.0297944
-0.023603119	-0.021180313	0.056371246	-0.014156207	0.03189217	-0.009164664	-0.07787622	-0.0028747781	-0.0542823	0.10054802	-0.064708695	0.0799566	0.09389816	0.011752398	-0.07898449	-0.013002682	-0.033774763	0.010026123	0.09945765	0.046611305	0.010260239	-0.0468035	-0.032635946	0.05116565	0.009902414	0.02087706	4.8853723e-05	-0.053971246	0.048477992	-0.02725363	-0.045650143	-0.04430672
-0.061320532	-0.03667347	-0.0131579125	-0.030761236	-0.03706809	0.004340779	0.038016334	0.017230943	0.027288001	-0.04293166	-0.08384657	0.03010961	-0.025597353	-0.004778093	-0.058960315	-0.058335166	-0.023612158	0.014530519	-0.024857312	-0.00035038652	0.013720241	-0.03685433	-0.034780305	0.06412288	0.0330006	-0.019413838	-0.0005433424	-0.06495875	0.050378926	-0.025025679	-0.021415407	-0.04847515
0.02030581	0.03648104	-0.02727109	0.045534857	-0.008124921	0.01756947	0.05910266	0.020434787	0.020627106	0.00801967	0.03382601	-0.061273854	-0.01916809	0.013562327	-0.009518698	0.060367834	0.045618918	0.013290503	-0.0344738	-0.009961561	-0.07687509	0.06828037	-0.001611223	0.01004854	-0.07047602	0.029057585	0.024810473	0.07284955	-0.0014803486	0.07384708	0.0719378	-0.00017219447
-0.11261435	-0.06108882	0.048491847	-0.03603624	0.07045911	-0.06766021	-0.1016734	-0.07976093	-0.039123554	0.039711587	-0.086492814	0.08643345	0.07144646	0.052503802	-0.10629097	-0.053741954	-0.045364264	-0.12624983	0.08853905	0.067039534	0.063592434	-0.07829041	-0.12042331	0.116036125	0.024060598	-0.03301086	-0.08938848	-0.1002277	0.069370404	-0.036943525	-0.023696963	-0.06016203
-0.060225144	-0.061440468	0.06998368	-0.06251596	0.05498796	-0.059129894	-0.06678364	-0.057023235	-0.050211497	0.09525966	-0.04248129	0.042444423	0.10262587	0.07159695	-0.03316727	-0.012132209	-0.025513507	-0.040916536	0.01696555	0.080369085	0.037849493	-0.090266414	-0.024250643	0.10250541	0.051341727	-0.050111942	-0.032321975	-0.061848592	0.03470801	-0.0061271656	-0.014588312	-0.117419876
-0.00042815885	-0.015588035	0.040321216	-0.040851615	0.045088507	0.0063855764	-0.06981522	-0.06910706	0.021602593	0.016018273	-0.020197315	-0.053144127	0.06810483	0.013452499	-0.016277509	0.006970357	0.013789594	-0.04640877	-0.001770592	-0.011448288	-0.00990698	0.018729052	-0.058369838	0.018797128	0.027487226	-0.065240346	-0.02428846	-0.044650815	-0.008520658	-0.0011663558	-0.05704824	-0.041972965
-0.093450285	-0.08467162	0.18558587	-0.1631698	0.08679737	-0.06935838	-0.15800397	-0.11665288	-0.18700372	0.16754985	-0.06820538	0.09411648	0.12002359	0.07487233	-0.16095218	-0.15958858	-0.14416574	-0.16356769	0.12927236	0.16507855	0.1864866	-0.1416183	-0.12091623	0.12705489	0.14351115	-0.059847206	-0.14743373	-0.133279	0.10751817	-0.11149034	-0.15714864	-0.15742242
0.013431833	-0.02808014	0.002011637	-0.050743837	0.031873062	-0.0033295709	-0.045861885	-0.0009954211	-0.029886631	0.038940158	0.0042368765	0.030051224	0.021548664	-0.005123923	-0.070584446	0.0061088786	0.08267223	-0.024917115	0.002279347	0.085622445	-0.013471017	-0.048085377	-0.04055336	0.032313503	0.047683768	0.025837744	0.017770344	-0.008454034	0.073674366	-0.029338334	-0.06307689	-0.06643837
-0.048078306	-0.110316545	0.057592176	-0.092565596	0.03321901	-0.119091846	-0.058714036	-0.05697269	-0.095009305	0.122351095	-0.015447261	0.024196519	0.11792929	0.06785762	-0.026487984	-0.07138226	-0.08844862	-0.043597244	0.1277081	0.106195256	0.07859356	-0.12841323	-0.021414982	0.078836896	0.09756311	-0.027661908	-0.039210644	-0.06283346	0.06640338	-0.10333222	-0.083304174	-0.04699935
0.017863857	0.03616511	-0.045225456	0.05725875	-0.017347079	0.026041452	-0.004288198	0.015162145	0.06348778	-0.0076207975	0.047628805	-0.0952473	-0.03814263	-0.07971317	0.017368505	0.08062876	0.06600159	0.087612845	-0.08029237	-0.0658052	-0.042072553	0.045466125	0.016007125	-0.045514815	-0.019606356	-0.014040032	0.047431666	0.058061257	-0.007376557	0.024230072	0.053694613	0.0278761
0.0012917396	0.016417269	-0.007124985	-0.0377578	-0.037323862	-0.04640398	-0.025785187	-0.022596048	-0.04298001	0.009362385	0.020456886	0.035877004	-0.022921724	0.047789965	-0.009980074	-0.00015023547	0.049516022	-0.010194739	0.013792086	-0.041948978	-0.024742959	-0.020280821	0.010783148	0.024504235	-0.021433288	0.029357988	0.0074873236	0.0145309735	0.0007163471	-0.008853263	0.037195846	0.05953345
-0.027550489	-0.043042745	-0.043802895	0.037322115	-0.013972064	0.029554727	0.02379411	0.0019682206	0.034752924	0.047454458	0.004578036	0.024073992	0.004271717	-0.045722444	0.03576688	-0.003142721	-0.012788817	-0.009440283	0.03012092	0.0710644	0.045574307	-0.022466479	-0.04816878	-0.00764397	0.023202082	-0.06964266	-0.01213559	-0.019192837	0.010865872	0.03428471	-0.03732395	0.023425171
-0.017964838	-0.06564805	0.03397663	-0.08991521	0.07325424	-0.021095818	-0.06106098	-0.03902804	-0.01437951	0.04937561	0.015743552	0.046396278	0.02054188	0.072014764	-0.009549623	0.00063098135	-0.08015545	0.014735021	0.068620175	0.06258331	0.028762987	-0.01070638	-0.023704443	0.090990335	0.052046552	-0.09096805	-0.05259615	-0.060939442	0.05819988	-0.08285469	-0.096617386	-0.07933359
0.03469635	0.012704221	-0.026866877	-0.04597142	-0.061553914	0.02051468	0.014482823	-0.008098942	-0.0053437734	0.02324912	0.02849392	-0.046266433	0.00082911405	-0.024674376	-0.026915502	-0.030928157	-0.10398229	-0.021724483	0.038092528	-0.03682032	0.039460238	0.012648813	0.032896996	0.016439328	-0.006726037	-0.111374415	0.0013054487	-0.042419344	0.008462085	-0.0032357904	0.045292374	-0.0027697673
-0.043721784	0.01253664	-0.0008032213	-0.013682849	0.001805845	0.011763176	-0.036727574	-0.03981286	-0.016655281	0.066479914	-0.011666727	0.008338726	0.018069955	0.046257857	-0.004175553	0.00674374	-0.04618647	-0.03832393	-0.019214226	-0.023534162	-0.005448765	-0.021378553	0.02860911	0.05888565	0.022781072	-0.023683634	-0.03638587	-0.047867473	-0.011611246	0.0062499517	-0.023022102	0.02023512
-0.005298219	-0.0073749134	0.07608216	-0.056424852	0.019158022	-0.08259698	0.0011491928	-0.016690454	-0.044127755	0.012431256	-0.04733675	0.005497596	0.012333321	0.06842307	0.009016676	-0.03564991	0.066853955	-0.0007937791	-0.01597535	-0.0028303913	0.059523292	0.005640154	-0.058733154	0.083364025	0.03565584	0.008740668	0.024326349	-0.033943385	-0.0005723604	0.01893883	-0.07540946	-0.077431366
0.005837568	-0.011052392	0.04821542	0.040565845	0.05306575	0.027556695	0.030785166	-0.01747357	-0.02305182	0.04499294	-0.060779367	0.032930296	-0.0061217304	0.0037736495	-0.075162835	-0.039634	0.028330553	-0.01912184	0.009702485	0.0074019767	0.042046737	-0.04045758	-0.052491777	-0.024062742	0.07531032	-0.023649028	-0.03972036	0.023783056	-0.009785004	-0.017659932	0.02621173	-0.00765867
0.013218512	-0.0197062	-0.052865442	-0.017206734	0.02402578	-0.033081114	0.034135193	-0.02841706	-0.02560246	-0.016355315	-0.05487054	-0.018311864	-0.07186782	0.034918766	0.0021515912	0.013710871	0.0665594	0.039688095	-0.06236122	-0.01327527	-0.023025228	0.044995666	0.029493744	0.03181336	0.0056662993	0.036082577	-0.014172037	0.05440451	0.0062311245	0.009558717	0.041846685	0.04440365
-0.09682347	-0.076946005	0.062424015	-0.117863484	0.07646632	-0.06419763	-0.05960177	-0.11811547	-0.0717181	0.07046629	-0.044662353	0.033774357	0.111466944	0.11458138	-0.0837869	-0.041629672	-0.024839444	-0.022715908	0.08833247	0.10678281	0.12720512	-0.04382115	-0.04903183	0.0751052	0.103392735	0.06780407	-0.10500574	-0.08821118	0.10844862	-0.0910373	-0.109088935	-0.029568953
-0.09862312	-0.03662292	0.055057667	-0.08455778	0.016098574	-0.009090802	-0.067160174	-0.02019941	-0.10280997	0.008991744	-0.047784183	0.05534262	0.028384406	0.00057965075	-0.05392976	-0.071585275	0.009724716	-0.093866564	0.07955612	0.07080405	0.032041673	-0.06499742	-0.047980096	0.06440868	0.034786895	0.0011833895	-0.020440692	-0.1175591	0.10788757	-0.10292221	-0.07774793	-0.07059045
-0.020416168	0.027323779	-0.057811975	-0.042331386	-0.038341917	0.057868015	0.04591206	0.051923055	0.04107565	0.03425304	-0.015595968	-0.02242533	-0.017527133	0.0375332	0.011220766	-0.023206433	0.015907042	0.042168666	-0.0151942	-0.066345856	0.026797922	0.017947791	-0.035635334	-0.027920114	-0.024488792	0.03255463	0.011615425	-0.031842254	-0.059657134	0.061629757	0.043111302	0.010980909
-0.01234691	0.03100521	0.0149621675	0.04646875	0.0032807402	-0.019270403	-0.0033954566	0.001622555	0.04586746	0.00046126044	0.005439038	-0.044250548	-0.037870683	-0.047627643	0.01005092	-0.014962141	-0.017123217	0.013136098	-0.0018032636	0.03461906	-0.01284776	-0.041071713	-0.026672019	-0.06396545	-0.061321866	-0.019868433	-0.0027694984	0.010489208	-0.027058301	-0.000825547	-0.0124855405	-0.030329661
0.038352106	-0.011320292	0.0443608	-0.015395947	0.028465185	0.02741288	0.028546102	-0.031911902	-0.055190045	-0.032489307	0.025612384	0.0097171515	0.019741384	-0.013487136	0.010972655	0.031801213	0.03392019	0.041670255	0.024056356	0.03926433	-0.018115437	-0.032941055	0.025402471	0.042371124	0.030959347	0.031873792	-0.029270492	-0.007096967	0.05195256	-0.0045653502	-0.058031578	-0.03714658
-0.042236216	-0.01910435	0.052249074	-0.0790138	0.028699027	-0.0005758643	-0.043789644	-0.03449935	-0.045920294	0.0014129921	-0.04523383	0.07720108	0.055644482	0.0046239495	-0.050606765	-0.00400961	0.01397049	-0.03135747	0.060258966	0.0022897609	0.03812944	-0.06474807	0.011645335	0.054011416	0.029161345	0.02784341	-0.06271289	-0.061349213	0.044922266	-0.0071543325	-0.008144765	-0.033758402
-0.012265882	0.034560837	0.027403608	0.028883375	0.023872826	-0.031381715	0.03073689	-0.0023283807	-0.02638723	0.05292863	0.030281132	-0.011831391	0.04994382	0.030525792	-0.0088645	0.02342039	-0.028365342	0.046074346	0.030125985	-0.0003682487	0.033164702	0.04572504	-0.006091786	0.0404737	-0.02719319	-0.019182349	-0.023151876	-0.050555147	-0.0029458893	-0.041462347	-0.013798091	0.024943272
-0.05115924	0.028050067	-0.03223295	-0.021915888	-0.017755162	-0.02321958	-0.016421426	0.008759206	-0.0023415983	0.006106733	0.031470258	0.030538585	0.05772481	-0.0283281	-0.064293824	-0.039426908	0.09540741	-0.0148220295	-0.042579085	0.0021239826	-0.03833222	0.03529332	-0.024897197	0.02108309	0.031102274	0.019563353	0.011361373	-0.052996036	-0.0033197333	-0.014069112	-0.0038553982	0.011676017
-0.04732381	-0.1214744	0.08825306	-0.06510847	0.08300369	-0.11565457	-0.14032134	-0.05906012	-0.12765466	0.12000057	-0.041195866	0.091772094	0.112860024	0.08453883	-0.12715803	-0.06993828	-0.031309843	-0.12136078	0.10281864	0.08411909	0.11982104	-0.03592598	-0.11330412	0.08822355	0.053896476	-0.047034647	-0.04203893	-0.12234398	0.10860238	-0.1261108	-0.092821985	-0.09689331
0.038940266	-0.014036517	-0.052899458	0.031260565	-0.010860516	-0.013296554	-0.016765408	-0.0022501056	-0.005774425	0.010823533	-0.009601201	-0.008083588	-0.021557525	-0.028149674	-0.02009486	0.017896436	0.02687655	-0.008874461	-0.031708967	-0.0052283574	0.02629989	-0.0047399453	-0.04394595	-0.040678315	-0.04663371	0.030765515	-0.027142627	0.06749087	-0.055534597	0.033378527	-0.0027505392	0.011018402
0.0049337987	-0.07070281	0.0189428	-0.046542626	0.02081787	-0.0065768072	-0.026785186	-0.06669458	-0.037858862	0.017025603	-0.06384116	0.02076995	0.049843233	0.0391601	-0.055331722	-0.030022135	0.013278484	-0.021015717	0.05298948	0.0869554	0.07455826	0.003897942	-0.06935659	0.032472126	0.070511036	0.03046109	-0.044484466	-0.017935965	0.08405942	-0.03176175	0.0019274431	-0.022299314
-0.010153971	0.049202308	-0.061523482	0.012698916	-0.019822	0.057123683	0.08588929	0.031554356	0.016617585	-0.024920847	-0.0051341993	0.013290726	0.002628293	0.020368218	0.013838823	0.07515228	-0.031448707	0.012930828	-0.026834264	-0.014248739	-0.085056856	-0.0038474489	0.041768666	-0.073486716	0.012442057	0.003123894	0.061887756	0.07588727	-0.07086427	0.044921253	0.05180619	0.06090675
0.0782523	0.06016163	-0.05201014	0.05986886	-0.026644917	0.070681915	0.051426966	0.0058647227	0.049604617	-0.077463284	0.041268796	-0.005958012	-0.034324884	-0.048917584	0.02574425	-0.012767436	0.055896755	0.07565619	0.008679419	-0.07512741	-0.02938549	0.058032695	-0.005501685	-0.07813579	-0.058515187	0.01797857	0.040182672	0.022782125	0.0069210012	0.049806964	0.072729215	0.00654791
-0.012683003	0.054401148	0.035931714	0.013965993	-0.0031176645	0.019083964	-0.039348263	-0.005094197	0.041804682	0.0030938333	0.0008825188	-0.027018508	-0.03949767	-0.059473515	-0.0192709	0.02447632	-0.030073434	0.022590797	-0.0072806994	-0.010189601	-0.01825223	0.05796382	0.0021466613	-0.021019608	-0.0056381794	0.03843853	0.01565369	-0.03287359	0.028389322	0.024203045	0.042876095	0.063580774
-0.019654864	0.033176374	-0.022112317	0.019205377	0.058304973	0.025688224	-0.04611056	-0.039013695	0.017567948	0.05179629	-0.06074034	0.04837054	0.05583786	0.0006697179	0.020119432	-0.052975632	0.045197245	0.0057447073	-0.011756812	-0.017302683	0.021394357	-0.032035895	-0.0023215266	0.00022943679	-0.02267942	-0.025415808	-0.048998028	-0.010441849	0.05026752	0.0046490207	-0.035545293	0.0030343754
0.04072608	0.0068424377	-0.04572287	-0.03770874	-0.041508023	0.0018277661	0.065500356	0.017048832	0.00011759954	0.008493886	-0.014402331	-0.03437241	0.008102653	-0.016097488	-0.034277875	-0.029068047	0.045121755	0.057608075	-0.0162252	0.001090182	-0.024566097	0.029499495	0.050540615	0.027102675	-0.013734542	0.041245814	0.024790043	-0.017568475	-0.04225563	-0.012001015	-0.026536068	-0.012394108
-0.044009037	-0.008424206	-0.0012338045	0.011694164	0.02709226	-0.01026933	0.0074116783	-0.010562955	-0.039455622	-0.004327218	0.015327586	0.03304745	0.017900944	0.0072851856	-0.019014478	-0.014544452	0.018374061	-0.039055385	0.04215497	0.022397367	0.041873083	-0.010214142	-0.02539612	0.06483325	0.040404286	-0.014855664	0.035263676	0.0020240224	0.021372568	-0.05203928	-0.014392617	-0.070757896
-0.0044721025	-0.016466208	0.00093984	-0.004030788	-0.0076234946	-0.01892184	-0.040382802	-0.018634504	0.008909125	0.042145193	0.019845909	0.06998415	0.0090359235	0.0750682	0.005221178	-0.04201788	0.03005059	-0.044802375	-0.0005289184	0.023574838	-0.00786302	0.0065672193	-0.049103923	0.03689433	0.038653318	-0.007228134	0.0037762923	-0.05039705	0.08357805	-0.023558836	-0.029880282	-0.01061497
0.11244648	0.07810016	-0.10996257	0.1172421	-0.035773966	0.09134542	0.032219503	0.053604722	0.12844644	-0.13716146	0.06388527	-0.031837266	-0.06949189	-0.020707957	0.019263567	0.046094432	0.050167806	0.033751596	-0.11912203	-0.13875586	-0.038731337	0.07730817	0.076628216	-0.06692071	-0.08818854	0.050809804	0.09385335	0.08183067	-0.048887823	0.045565724	0.074716784	0.0640216
0.06765582	0.0091188485	-0.010232122	0.057259023	-0.024417832	-0.015072528	0.073916875	0.0031504317	-0.01076997	-0.06839014	0.04421977	-0.071310595	-0.03772545	-0.0042433934	0.06431681	0.0576115	0.016504424	0.046642747	-0.05944452	-0.033070166	0.0028211286	0.008177846	0.027243318	-0.010650206	-0.0020594182	-0.008468879	-0.010033613	-0.005012939	-0.07812113	0.07977383	0.05158429	0.02916468
-0.02024325	-0.075770035	0.047440663	-0.018631684	0.05679548	-0.038120553	-0.042289276	-0.037511177	-0.0694422	0.06612824	-0.04082158	0.054284673	0.023053262	0.09704239	-0.02930267	-0.07921912	0.03411324	-0.08207498	0.035791975	0.1072885	0.077754945	-0.08970609	-0.06006017	0.097874604	0.059077144	0.038945854	-0.06104338	-0.06615798	0.06495142	-0.025409566	-0.054498892	-0.082079835
-0.07848411	-0.079983234	0.15253374	-0.09859151	0.051026195	-0.14988977	-0.06288247	-0.14829691	-0.09587144	0.12896146	-0.06489307	0.0887366	0.10138162	0.15164478	-0.101580754	-0.05563152	-0.028104221	-0.07551266	0.13601914	0.100325234	0.13241117	-0.06378679	-0.058093973	0.10435008	0.076796986	0.000100701705	-0.12859401	-0.09696157	0.06384496	-0.13187923	-0.086011894	-0.057932794
0.019911854	0.045525465	0.034777537	-0.02435306	-0.005024137	-0.013187883	-0.043360535	-0.028822562	0.0050322455	-0.04297509	-0.035893366	0.0533624	-0.02477793	-0.03268555	0.014240563	0.005488177	0.013969882	0.015746027	0.041075647	-0.034056336	0.0028570087	-0.012180557	0.012705641	-0.013540769	0.0058566583	-0.02064146	-0.043912917	0.0015260677	0.045854956	0.01475426	0.057178363	-0.026898421
0.038515154	-0.029495997	-0.030905811	0.02657233	-0.014928424	-0.00725812	-0.020717507	-0.039772186	-0.033657227	-0.04069884	0.00035275536	0.03007572	-0.02877852	0.04077303	-0.001917254	0.034453105	0.034142982	-0.039030343	-0.008523355	0.055868167	-0.036782566	-0.057515144	-0.015037237	0.012416866	0.05710559	0.08816453	0.017499907	0.028785383	-0.034940876	-0.037810113	-0.0077454844	-0.049049582
0.010162151	0.03256453	-0.0032537568	-0.012344743	-0.05017681	0.033070266	-0.008698833	0.028365716	-0.021464823	0.02596137	0.018722983	0.017511828	0.044215057	0.02920824	0.039408322	0.004452696	-0.032912236	-0.0019265313	-0.042674083	-0.0037125133	-0.035431962	0.044920996	-0.01877928	-0.04639782	0.045387477	0.046701632	0.046059016	0.05912647	0.025309952	0.023548836	0.004766639	0.026423432
-0.06259249	-0.07287758	0.12665145	-0.08742694	0.046012282	-0.040730506	-0.059799217	-0.03421712	-0.1239083	0.14679326	-0.096859485	0.037723012	0.087433025	0.13146481	-0.05251272	-0.09402609	-0.07472862	-0.06615168	0.07012342	0.030895267	0.12075646	-0.094285905	-0.048115406	0.035165567	0.07705313	0.010064356	-0.10225267	-0.09831879	0.04419608	-0.06962413	-0.050731625	-0.0952467
-0.040993433	-0.013250428	0.014166101	0.007119177	-0.011735479	0.042194653	-0.032063853	-0.033844993	0.023174806	0.0153049845	-0.016697008	0.0053892806	0.031987425	-0.02677058	-0.037265502	-0.016561847	-0.02369267	0.012150305	-0.029850166	-0.00018205687	-0.012749851	0.03821882	0.0067288596	-0.009027842	-0.026628302	-0.00025922916	-0.029421017	0.01139159	-0.024010167	0.04054641	-0.0009793886	-0.021761391
-0.021960076	-0.08885236	0.043541513	-0.07166261	0.044298172	0.0007722133	-0.059717644	-0.08193245	-0.07943592	-0.00012658845	-0.022183493	0.04765654	0.022436684	0.08230871	-0.034857776	-0.0052204924	0.006289933	-0.01714446	0.056765527	0.034463983	0.05219162	-0.083447516	-0.06131807	0.049234	0.048489645	-0.04100974	0.016505625	0.008832936	0.06100665	-0.012660029	-0.07794153	-0.025721798
0.077291936	0.022776226	-0.033510324	0.014479144	-0.07595778	0.082184315	0.082563326	0.03277608	0.018428	-0.045366958	0.0027694835	-0.07010134	-0.055436153	-0.018921884	0.045547802	0.03802056	0.03204595	0.02851114	-0.03661839	-0.0064113457	-0.046471037	0.03167281	0.060938552	-0.052689563	-0.02234931	0.025211552	0.06144241	0.04424285	-0.0040543806	0.025016742	0.03793634	0.024406746
-0.028272763	-0.027969493	0.00902888	-0.020603254	-0.042575296	0.019091256	-0.018801123	0.012943293	0.018084696	-0.050538372	0.011291663	0.03246081	-0.008638975	-0.042896017	-0.019699026	0.024320133	-0.017554512	-0.012390538	0.032881692	-0.00079735066	-0.044986118	0.07147653	0.017234607	-0.03274921	0.0056337295	-0.034739885	0.018969782	0.016521718	-0.04762111	-0.010889626	0.011613974	0.011416369
0.12860188	0.1336345	-0.12556621	0.035736874	-0.10668421	0.058895387	0.07173415	0.05597433	0.12727982	-0.10346981	0.1165367	-0.13200445	-0.08653178	-0.07041842	0.120246835	0.037675146	-0.06898799	0.041521993	-0.11423551	-0.13282834	-0.12122979	0.118109286	0.017166313	-0.08968957	-0.14277811	-0.04501818	0.111397296	0.10954	-0.11060729	0.11390805	0.056499653	0.04064907
-0.08678212	-0.031113813	0.035499915	-0.007971321	-0.014792623	-0.022554573	-0.0068776524	-0.036219854	-0.07201516	0.07036999	-0.07661627	0.03442039	0.03542513	0.06849206	-0.08117613	-0.0029901585	-0.011700343	-0.062127285	-0.009267243	0.051377535	0.08464713	-0.0017833485	-0.02375019	0.008566733	0.023416506	-0.06418685	-0.017934438	0.0016407169	0.08104658	-0.06244697	-0.008687234	-0.0908324
0.011368065	-5.480918e-05	-0.037227057	0.03131667	-0.026595978	0.0068718703	0.0414015	0.05417116	0.01720507	-0.0337903	0.024715688	-0.023807414	-0.08592669	-0.07833947	0.07382121	0.02242302	0.0287941	0.08241032	-0.085690975	-0.025541138	-0.0051731365	0.06610833	0.016404921	-0.03467824	0.010525593	0.019934278	0.022802414	0.047406103	-0.08385383	0.04691602	0.06880399	0.04989207
0.07635054	0.061000746	-0.06852865	0.013376166	-0.072980516	0.018153375	0.0028557428	0.05911241	0.050397094	0.014482851	0.05315533	-0.004582784	-0.066816844	-0.051840317	-0.0044407095	0.034287427	-0.09342491	0.042755228	-0.037021913	-0.05020226	-0.028688975	0.06162374	0.04998918	-0.063073635	-0.008265657	-0.08310898	0.0742763	-0.022145793	-0.0027175974	0.025920242	-0.0035621957	-0.012613689
0.08219395	0.08640931	-0.050069015	0.012978146	-0.100003004	0.0476062	0.032684114	0.059732925	0.027443156	-0.044186283	0.06666187	-0.0112655815	-0.030525338	-0.10809048	0.03851153	0.09780836	-0.0048494334	0.05549055	-0.06519649	-0.06961294	-0.018138004	0.045184713	0.088345885	-0.063016236	-0.05196055	0.010859954	0.012139052	0.07936657	-0.061054338	0.029266544	0.08197911	0.016169773
-0.0404892	-0.06621047	0.08298578	-0.031433024	0.026164642	-0.09258652	-0.043427166	-0.03426542	-0.056184452	0.018386927	-0.05259249	0.09731979	0.06342285	0.010354616	-0.03905745	-0.038042724	-0.039901562	-0.04029757	-0.014086825	0.0777449	-0.012899572	-0.021674616	-0.075101934	0.031561904	0.030380758	0.039144497	-0.08766223	-0.079996586	0.015236863	-0.034347575	-0.02949475	-0.07208556
-0.045610063	-0.031986795	0.037951566	-0.01426386	0.024471728	-0.07255385	-0.0993962	-0.03564396	-0.05743954	0.063055575	-0.02027819	0.0589113	0.08311699	0.04144589	-0.083675295	-0.009013424	-0.0068530864	-0.06555315	0.10541014	0.03946389	0.00830497	-0.09283932	0.0001549856	0.08829252	0.029187128	-0.048010584	-0.031824585	-0.049354464	0.07536788	-0.07516885	-0.028330276	-0.033253156
-0.0031736463	-0.069005564	0.077469766	-0.041316543	0.037827145	0.0025117926	-0.031824965	-0.030285701	-0.04379972	0.03800001	-0.01815234	-0.024139443	0.006727275	0.007158512	-0.0013533888	-0.045978498	-0.075274915	-0.07331221	0.01846055	0.048937418	0.018245382	-0.04340379	-0.008257429	0.00059175136	0.022582889	-0.0414733	-0.030924227	-0.05171785	0.03624383	-0.055678997	-0.035484347	-0.050531663
-0.0052982536	-0.0827335	0.060139857	-0.006655827	0.032018818	-0.08686891	-0.0897768	0.008757006	-0.033703987	0.031351857	-0.0370453	-0.007237872	0.039284855	0.017058574	-0.086054824	-0.07559838	0.019410545	-0.07847981	0.06311116	0.061566547	0.080258	-0.090988666	0.013618639	0.023309555	-0.016887741	-0.0025276176	-0.04114257	-0.0021536185	0.063383006	-0.0054563517	-0.027870014	-0.038886316
-0.029341707	0.019743782	0.033042923	0.044054423	-0.013727554	0.012809309	0.0085411165	0.022772383	-0.029244872	-0.020732163	-0.041038822	-0.03419821	-0.030945808	0.016429245	0.060303744	-0.04993797	0.002119251	0.009103787	0.011064328	-0.008781261	-0.03124321	-0.04528089	0.018603787	-0.033294544	-0.011065817	-0.037726704	0.018781872	-0.043049157	-0.041689616	0.02535191	0.0069597387	0.00482038
-0.078186534	0.024236161	0.090980366	-0.036408205	0.032547053	0.012375937	0.028012227	-0.052254993	-0.030396003	-0.015879694	-0.030885534	-0.011820975	0.053877667	0.020634806	-0.061112814	-0.021944325	-0.09299116	-0.0036877221	0.049183026	0.006883668	0.09180772	-0.049220175	-0.072823286	0.012048189	-0.017713156	-0.09040568	-0.03985021	-0.037594624	0.03811498	-0.0913079	-0.034450013	-0.07647041
-0.015921984	-0.018803002	0.043064266	0.006113458	0.0022178048	-0.011976031	-0.031209402	-0.04296954	0.016534295	0.083102755	-0.038326513	0.003104746	-0.0015418226	-0.033562556	0.0075041815	-0.051701754	-0.053466395	-0.060544472	0.05700067	-0.0051606894	0.011001162	-0.026685502	-0.044928484	0.040593244	-0.034854926	0.029162042	0.03492451	-0.0027680066	0.060597062	0.011980547	0.0024803572	-0.039218597
-0.0073008263	0.014782767	-0.008721153	0.023420356	0.021679128	-0.04878968	0.028692774	0.021469105	0.03601152	0.016589053	-0.02753929	-0.063356355	0.0046550664	-0.014659233	0.02386077	0.014321378	-0.05047565	0.0036987048	0.019023415	-0.049831305	-0.03539174	-0.030353628	-0.04333938	-0.044392303	-0.047975328	-0.0026488812	-0.008284482	-0.0080846585	0.053468518	0.003673108	0.010733651	-0.029100023
0.034053974	0.015352336	0.033400524	-0.059597995	-0.0419802	-0.058327366	0.032282498	0.006323664	-0.04648184	0.024878876	0.026927391	-0.052613422	-0.0071528093	-0.005086495	-0.012167704	-0.019738298	-0.02284015	-0.0014884819	0.048258975	0.010432183	0.0049549127	-0.059570648	-0.0056991247	0.051202126	-0.02079252	-0.0595351	0.04271441	-0.036677573	0.025398782	-0.03491215	0.0154601	-0.00428172
0.0054788277	0.024036543	-0.025917184	0.038044136	0.020665	0.017275354	0.014730937	-0.00090462103	-0.029773433	-0.02869955	0.052440524	-0.014088977	0.008483853	0.016168145	-0.02667801	0.039399948	0.0019888757	0.013469716	-0.052014586	0.034557622	-0.033040136	-0.038559478	-0.03197292	-0.040270146	-0.0020416193	-0.02889043	-0.0018512165	-0.044515118	0.0077852355	0.016318182	-0.007870413	0.0106863035
0.0043445923	0.005719026	0.00589556	0.05859709	-0.06673262	0.030539973	0.07459411	0.039556682	0.06223617	-0.040019944	0.05989349	0.017879812	-0.022367371	-0.052030712	0.07884082	0.065305695	0.04234666	0.016126985	-0.025140585	-0.09045357	-0.0365179	0.0042810612	0.08222625	-0.07134232	-0.040828425	0.0051655383	0.066733785	0.021828743	-0.011497861	0.03535633	0.086887345	0.067021206
-0.0129492255	-0.023508295	-0.026994707	-0.04543536	-0.051519785	0.05862949	0.026712744	0.028507063	0.044043	0.0074708834	0.036659777	-0.016789235	-0.027380498	-0.01696035	0.05672212	-0.014711836	0.019059638	-0.026093071	0.03748152	-0.051706098	0.040165998	0.040750492	-0.038850863	-0.031919207	0.041236218	0.0077709495	0.029682806	-0.0051677786	-0.042262476	0.014675927	-0.04544989	-0.05979911
-0.046425026	-0.027998539	0.029040167	-0.0066444366	-0.044040464	-0.014756909	-0.024134358	0.018229011	-0.0027422446	-0.023854002	0.0012163979	-0.05218427	-0.022165101	0.023653049	-0.04110974	-0.03526449	-0.019591687	-0.022748867	-0.01961714	0.046795465	-0.02538936	-0.05078528	-0.0108428085	-0.010388402	0.04933834	-0.035707343	0.04078773	0.02147097	0.019704632	0.0014385607	0.03916145	-0.06275094
-0.03786367	-0.010604398	0.036257066	0.007389987	-0.035066355	-0.012880743	0.011609263	-0.013357005	0.017048964	0.0136643965	-0.016077911	-0.029249411	-0.0030826316	0.023096988	0.015332059	-0.006460013	-0.09415521	-0.062367927	0.07041917	0.049505234	-0.00845897	-0.021317706	-0.007846131	0.034857318	-0.0040746117	-0.008117937	0.004538125	-0.046599235	0.04767821	0.013244465	-0.018939903	-0.07376633
0.068610534	0.003469558	-0.012431068	0.009640408	0.029931126	-0.035971127	0.0027360334	-0.018070407	-0.03068523	-0.07746586	0.025316104	-0.012948241	-0.0012221661	-0.03366731	-0.0112866545	0.030693598	-0.015126979	0.044077452	-0.018323725	-0.070295565	-0.054607436	-0.014796139	-0.007535341	0.017341765	-0.016832808	0.0136711225	0.003529334	0.011309042	0.016277341	-0.026526004	-0.013315198	0.085020475
-0.071961015	-0.077292785	0.06152847	-0.0118897585	0.065842345	-0.09239161	-0.053434137	-0.04077908	-0.07625602	0.013829458	-0.031202042	-0.049249247	0.050048742	0.068666555	-0.04933635	-0.072673984	-0.048533875	-0.036166724	0.048229855	0.086375326	0.032377083	-0.0951395	-0.054172434	0.044675983	-0.013730162	-0.06127929	-0.012951836	-0.052862342	0.042029005	-0.07090105	-0.017707827	-0.08008851
-0.046800256	-0.09688525	0.028587412	-0.07119691	0.022830658	-0.092674	-0.038824357	-0.09617952	-0.054435965	0.070954375	-0.076437116	0.022828728	0.108204246	0.025809223	-0.0680207	-0.10006637	-0.03268857	-0.04729083	0.10107514	0.029272655	0.054609194	-0.092670046	-0.01821021	0.016516484	0.033767782	0.028476743	-0.03296563	-0.09721036	0.10800356	-0.039411314	-0.087021366	-0.09764716
-0.02098492	-0.009993017	0.07240423	-0.06620963	0.015804818	-0.09437118	-0.07747504	-0.08142228	-0.038597375	0.05137089	-0.111528926	0.09679616	0.056284096	0.07900245	-0.09252022	-0.024332229	-0.02703069	-0.007575592	0.0764271	0.007094808	0.086403996	-0.10382056	-0.08253322	0.09910519	0.061433516	0.011036781	-0.09483848	-0.085946664	0.070874505	-0.030017383	-0.07575489	-0.09433026
0.024904525	0.022741534	-0.028578162	-0.025613584	-0.010515678	0.025355306	-0.03330938	0.0026357938	0.031377077	-0.055818334	-0.0110245645	0.034594778	-0.037481327	-0.032574527	0.04066941	-0.020323647	-0.018483339	-0.0032415865	0.003570845	0.024245437	0.022483617	-0.014893121	0.018573223	-0.049024615	0.020741815	0.019372266	-0.0006469893	-0.014007661	-0.033193454	-0.0150620565	0.04518953	-0.009144011
0.084508084	0.05975733	-0.07296743	0.10438971	-0.020077985	0.024634672	0.071386844	0.075775884	0.0026569972	-0.0928103	0.09094897	-0.0358749	-0.070564374	-0.05421312	-0.005435895	0.04166427	-0.02345602	0.00936971	-0.09544545	-0.013180217	0.0018544266	0.04834369	0.056453075	-0.039831065	-0.10121472	-0.010205508	0.10071517	0.0019424987	-0.044764325	0.058121502	0.067739196	0.083280526
0.0077162734	0.028555945	-0.020799058	-0.011345792	-0.02741411	-0.014305998	0.04148717	-0.025286706	-0.035734303	0.014264246	0.056125596	-0.030922981	0.016759636	-0.011526492	0.026708571	0.019464107	-0.051797446	0.027593909	-0.042284	0.035910368	-0.002386657	-0.008343857	-0.013204189	0.020003606	-0.014420871	-0.09787181	0.036864076	-0.018903222	-0.029900357	0.0244678	0.03789148	-0.017696958
-0.0049484293	0.0066938717	0.04606794	0.0065559587	-0.018988127	-0.014988342	-0.0543629	0.01940011	-0.04212579	0.027239522	-0.012444203	0.03933515	0.010590032	-0.0138209835	0.005351173	0.025590945	0.03658617	-0.04142342	0.007867999	0.031706825	0.053590257	-0.060896885	-0.021693923	0.0054764296	-0.018585647	-0.012980227	-0.0004618458	-0.06991807	0.027755039	0.023304556	0.03187202	0.006187123
-0.028489746	0.023063155	0.050152022	-0.008787242	-0.038946535	0.0021187193	0.024988621	-0.015158195	0.0070864763	-0.00071151555	-0.03800968	0.002812032	0.015726255	-0.027574064	-0.021587454	-0.037640505	-0.00846952	-0.010594444	0.020048596	0.0054501924	-0.031235114	-0.014931667	0.027204774	-0.032380834	0.03490895	0.021288125	0.027699068	0.013397704	0.036116917	0.027419139	-0.041012444	-0.046146657
-0.029883474	-0.061448198	0.08060474	-0.04646969	0.016314995	-0.03722589	-0.071369015	-0.04107071	-0.061384663	0.0036408426	-0.059749283	0.061204292	0.01360143	0.0031199856	-0.048438635	-0.06383335	0.0008142544	-0.035481405	0.028929172	0.012954061	-0.0048624733	-0.079009034	-0.04199923	0.029738497	0.08123033	0.022187637	-0.038347185	-0.08307385	0.001712583	-0.05147583	0.009559378	-0.07694636
0.027460871	-0.035773244	-0.05081811	0.014190248	0.05745346	0.017087461	0.028779173	-0.0080830585	-0.0393677	-0.021296278	-0.037989493	0.046646055	0.044144075	0.0459052	0.022905193	-0.010640928	0.004717374	0.0029312663	-0.033828605	0.016022746	-0.002659764	-0.018443251	-0.04210555	0.04412242	0.004790894	0.039166152	-0.022691363	-0.006059627	0.016140457	0.034592483	-0.0072777737	-0.027923783
0.046286803	-0.04479211	-0.0082607195	-0.0038694667	-0.020153647	-0.0017675047	0.027745541	0.0048982436	-0.0036203018	-0.012843059	-0.01683479	0.040052883	-0.04681492	-0.0053117783	0.01595727	-0.0052789752	-0.006971775	0.034436543	0.01861386	0.012205073	0.020522308	-0.0483864	-0.0067252894	0.007562187	0.0023585088	-0.006740651	0.01893182	-0.0078040906	-0.013799007	-0.003812595	0.02608748	-0.033304285
-0.0025098538	0.0018948183	0.07596904	-0.0023158751	0.011144128	-0.07734198	-0.04543959	-0.09899737	-0.020381581	0.06831009	-0.03401196	-0.0043313047	0.08167211	0.08022139	-0.011368631	-0.005574837	-0.016446896	0.002304445	0.018821752	0.085174724	0.058399983	-0.0421776	-0.069509156	0.014703645	0.020856345	0.055011727	-0.010588712	-0.0038464298	0.07184127	-0.070011154	-0.075203195	-0.019150138
